7420 20
</s> -0.025000 -0.016044 -0.000578 -0.004241 0.006816 0.002005 0.006772 0.011714 0.007331 0.014794 -0.018649 -0.006323 0.018059 0.005803 -0.011302 0.008857 0.011580 -0.006507 0.020926 0.020321 
the -0.127186 0.277165 -0.027995 -0.057839 0.131760 -0.279101 -0.412328 -0.299498 0.064663 -0.325453 0.196605 -0.145622 -0.219651 -0.006333 -0.057926 -0.394452 -0.544083 0.050185 0.508613 -0.257692 
a -0.052591 0.278205 0.023183 -0.106372 0.146495 -0.280094 -0.375689 -0.279042 0.076930 -0.291453 0.167866 -0.138185 -0.237684 0.025522 -0.022166 -0.379422 -0.574791 0.069543 0.507899 -0.226840 
to -0.071252 0.301636 0.012357 -0.089838 0.157550 -0.289630 -0.425848 -0.288347 0.048744 -0.313050 0.204709 -0.119385 -0.247316 0.027994 -0.044621 -0.386746 -0.584512 0.079724 0.470174 -0.221546 
of -0.055623 0.251540 -0.004550 -0.067002 0.108796 -0.311999 -0.411673 -0.304608 0.107642 -0.294346 0.115477 -0.107442 -0.258729 0.019357 0.000335 -0.343423 -0.598916 0.084224 0.531984 -0.207542 
and -0.099466 0.268180 -0.008250 -0.050496 0.107417 -0.271333 -0.395809 -0.282546 0.059810 -0.353964 0.129929 -0.106614 -0.241494 0.011904 0.018476 -0.350459 -0.589678 0.087364 0.517649 -0.220388 
in -0.082198 0.256946 -0.018629 -0.064324 0.121211 -0.301320 -0.361708 -0.285639 0.108335 -0.313785 0.131497 -0.120911 -0.252024 0.023839 -0.004265 -0.342219 -0.557091 0.098901 0.517530 -0.250282 
is -0.018792 0.252499 0.005807 -0.096481 0.131312 -0.278299 -0.320914 -0.277090 0.060727 -0.289345 0.072686 -0.103412 -0.287324 -0.017188 0.030418 -0.329479 -0.555656 0.080583 0.582219 -0.198735 
i -0.074489 0.311044 0.012969 -0.093327 0.134103 -0.263083 -0.351275 -0.307201 0.055894 -0.342763 0.161933 -0.119590 -0.273896 -0.001504 -0.052085 -0.379498 -0.562178 0.054646 0.463101 -0.216715 
that -0.080513 0.299068 0.024421 -0.071099 0.154277 -0.292126 -0.440094 -0.333194 0.031996 -0.294470 0.180258 -0.119310 -0.232035 0.006380 -0.036673 -0.381413 -0.566956 0.047541 0.494002 -0.221265 
it -0.052676 0.263065 0.007054 -0.080992 0.136206 -0.280191 -0.384439 -0.307820 0.038281 -0.283883 0.100703 -0.112566 -0.237851 -0.010167 -0.004135 -0.371919 -0.596067 0.116186 0.549447 -0.188418 
for -0.051025 0.238093 -0.014224 -0.099055 0.125683 -0.273913 -0.342047 -0.278960 0.085944 -0.314391 0.097968 -0.106069 -0.284633 -0.021725 0.024704 -0.321638 -0.566375 0.077449 0.556099 -0.208717 
you -0.038722 0.274165 -0.043911 -0.088432 0.082200 -0.244447 -0.327697 -0.297642 0.024315 -0.297829 0.123129 -0.094888 -0.252446 -0.024866 -0.014921 -0.342915 -0.550262 0.079633 0.539448 -0.227598 
on -0.085995 0.267155 -0.035173 -0.075433 0.090484 -0.286613 -0.361897 -0.258273 0.077260 -0.315448 0.141415 -0.149640 -0.281600 -0.027947 -0.002232 -0.378446 -0.557260 0.090782 0.520072 -0.238953 
have -0.085091 0.303203 0.017810 -0.090201 0.149081 -0.273273 -0.375618 -0.300168 0.044312 -0.313176 0.158748 -0.140902 -0.268541 -0.006094 0.006556 -0.366122 -0.590358 0.070142 0.513901 -0.198443 
are -0.040497 0.242072 0.012402 -0.090132 0.101103 -0.275099 -0.333910 -0.260368 0.063071 -0.319669 0.110291 -0.118834 -0.286248 -0.017761 0.028000 -0.322584 -0.581130 0.069137 0.545943 -0.210276 
this -0.049538 0.292478 0.007981 -0.067777 0.096740 -0.269684 -0.344881 -0.320570 0.075406 -0.317658 0.148855 -0.120997 -0.268701 -0.006702 -0.010737 -0.377590 -0.570494 0.069604 0.524524 -0.240217 
with -0.100190 0.243078 0.001647 -0.085407 0.108285 -0.279678 -0.347422 -0.275044 0.109353 -0.343783 0.116046 -0.111903 -0.288338 -0.035912 0.013691 -0.358761 -0.586572 0.058814 0.578200 -0.262023 
be -0.067021 0.257163 0.003356 -0.072074 0.116662 -0.256523 -0.382341 -0.271114 0.060097 -0.317057 0.107308 -0.144249 -0.277934 -0.017965 0.021323 -0.372803 -0.559620 0.086673 0.528843 -0.213895 
not -0.096124 0.263028 0.012070 -0.102187 0.146579 -0.256936 -0.381870 -0.292101 0.040319 -0.343783 0.147322 -0.139792 -0.274436 -0.000268 -0.015326 -0.367442 -0.559844 0.055457 0.529599 -0.226201 
or -0.072039 0.259951 -0.023420 -0.088700 0.101092 -0.276336 -0.387309 -0.270293 0.061336 -0.323475 0.138543 -0.110569 -0.258090 -0.011300 0.015353 -0.380079 -0.547722 0.099235 0.544535 -0.222558 
as -0.056232 0.260331 0.018835 -0.084655 0.140758 -0.274310 -0.340421 -0.275290 0.063743 -0.352885 0.156260 -0.106164 -0.253030 -0.018366 -0.011621 -0.368474 -0.562546 0.055076 0.559184 -0.217044 
but -0.071910 0.273589 0.011620 -0.100007 0.101657 -0.293595 -0.327549 -0.287661 0.063088 -0.305985 0.152891 -0.127578 -0.240744 0.004791 -0.008777 -0.362164 -0.588584 0.091085 0.514755 -0.230750 
was -0.032520 0.237221 -0.020992 -0.075580 0.111047 -0.289714 -0.321394 -0.273481 0.113742 -0.319923 0.086997 -0.109979 -0.260652 0.018000 0.028278 -0.343547 -0.628831 0.081615 0.556831 -0.259775 
my -0.037262 0.253358 -0.033568 -0.107978 0.149648 -0.263133 -0.357830 -0.294053 0.051335 -0.323953 0.135897 -0.132537 -0.275940 -0.004900 0.003332 -0.334999 -0.564189 0.071850 0.544294 -0.210153 
from -0.010112 0.238910 -0.017803 -0.087930 0.090619 -0.271374 -0.312612 -0.250716 0.115932 -0.283705 0.038441 -0.134725 -0.276663 -0.043850 0.064969 -0.307267 -0.587350 0.140075 0.606204 -0.209046 
if -0.079950 0.286544 -0.028573 -0.097240 0.122409 -0.283944 -0.362718 -0.279672 0.051782 -0.335467 0.129604 -0.133042 -0.247682 -0.013172 -0.001089 -0.381056 -0.566495 0.083819 0.543234 -0.223000 
they -0.066553 0.275206 -0.028318 -0.061739 0.125645 -0.269218 -0.377313 -0.300257 0.053425 -0.333023 0.097152 -0.147264 -0.251327 -0.009376 0.022207 -0.361844 -0.545988 0.062308 0.552092 -0.220187 
at -0.060098 0.240550 -0.022096 -0.041442 0.128381 -0.262281 -0.376748 -0.254124 0.112615 -0.324083 0.109670 -0.142086 -0.293884 -0.036986 0.044405 -0.314746 -0.608855 0.083707 0.559373 -0.252666 
about -0.045979 0.279450 -0.024811 -0.109471 0.117276 -0.267081 -0.337797 -0.301086 0.060463 -0.313965 0.148817 -0.138793 -0.239422 0.022795 0.027099 -0.334572 -0.564491 0.062211 0.520173 -0.212300 
re 0.045715 0.237131 0.028060 -0.074972 0.071780 -0.279588 -0.277155 -0.212243 0.109498 -0.317433 -0.008980 -0.136472 -0.315703 -0.016908 0.126971 -0.239264 -0.647955 0.116342 0.640755 -0.212142 
an -0.039006 0.254576 -0.019471 -0.062714 0.125584 -0.245316 -0.351864 -0.234828 0.069715 -0.316650 0.103331 -0.144132 -0.270026 -0.020100 0.040482 -0.332233 -0.588151 0.087153 0.561584 -0.235406 
article 0.047548 0.167575 0.018391 -0.085549 0.064024 -0.255939 -0.184155 -0.174407 0.133125 -0.330751 -0.053273 -0.160436 -0.303853 -0.056415 0.224315 -0.182332 -0.588667 0.100608 0.671039 -0.229695 
can -0.089784 0.276163 0.003846 -0.070958 0.131556 -0.278647 -0.336358 -0.246503 0.061805 -0.325457 0.103506 -0.135265 -0.267057 -0.031485 0.004335 -0.348316 -0.572514 0.075236 0.507132 -0.198611 
there -0.042194 0.249829 0.008922 -0.080239 0.095811 -0.258058 -0.356759 -0.276416 0.108799 -0.334975 0.130685 -0.139537 -0.270920 -0.013200 0.032875 -0.312684 -0.571368 0.081084 0.521420 -0.223130 
by -0.058503 0.252418 -0.004990 -0.041449 0.118247 -0.284715 -0.357476 -0.244900 0.123922 -0.323167 0.083447 -0.115300 -0.248924 -0.034626 0.076191 -0.323230 -0.567405 0.074381 0.588354 -0.244149 
has -0.059311 0.287900 0.009353 -0.094228 0.098950 -0.274375 -0.377595 -0.270083 0.106800 -0.334628 0.106656 -0.124981 -0.265228 -0.021627 -0.009799 -0.344341 -0.577066 0.051552 0.543768 -0.238189 
car -0.036633 0.338734 -0.037207 -0.093795 0.140806 -0.335148 -0.437467 -0.344522 0.124561 -0.414864 0.116466 -0.148783 -0.354058 -0.060106 0.091089 -0.470254 -0.799826 0.139220 0.760200 -0.302528 
one -0.053720 0.288632 0.003254 -0.100624 0.126286 -0.239292 -0.386044 -0.273132 0.076637 -0.305087 0.120970 -0.127131 -0.235681 -0.029837 0.017408 -0.348384 -0.570406 0.095131 0.504372 -0.206076 
would -0.055043 0.291302 -0.033873 -0.066042 0.124822 -0.250504 -0.332534 -0.288104 0.056702 -0.325063 0.153853 -0.142486 -0.261005 -0.002445 0.012111 -0.366857 -0.540211 0.060878 0.523881 -0.189621 
any -0.064265 0.234280 -0.002092 -0.095039 0.102235 -0.259279 -0.326844 -0.266384 0.070782 -0.317261 0.112364 -0.114240 -0.283015 -0.050768 0.023155 -0.348482 -0.582180 0.060641 0.584896 -0.197368 
your -0.015470 0.288019 -0.032660 -0.055625 0.091018 -0.272993 -0.341845 -0.261185 0.052054 -0.323155 0.088021 -0.102243 -0.257956 -0.034143 0.055829 -0.357031 -0.551647 0.064288 0.527731 -0.223712 
all -0.056548 0.277656 0.002951 -0.073447 0.121038 -0.251484 -0.371714 -0.277445 0.094621 -0.348572 0.122584 -0.116926 -0.263960 0.006462 -0.007755 -0.355471 -0.604470 0.069087 0.524242 -0.247652 
what -0.043746 0.226431 -0.002939 -0.090411 0.131288 -0.270622 -0.317132 -0.283638 0.090806 -0.299136 0.123676 -0.127614 -0.261651 -0.036571 0.037457 -0.349978 -0.565639 0.077074 0.551528 -0.206016 
do -0.050489 0.260159 -0.017868 -0.103111 0.121585 -0.278919 -0.326280 -0.281874 0.054412 -0.319656 0.107775 -0.143979 -0.280476 0.005662 0.012015 -0.325400 -0.567515 0.073216 0.537488 -0.191755 
will -0.077771 0.231558 0.010852 -0.094902 0.123767 -0.235123 -0.374134 -0.258201 0.068450 -0.344259 0.125151 -0.132762 -0.255068 -0.010685 0.011716 -0.350196 -0.550982 0.048168 0.553750 -0.258443 
me -0.054838 0.286310 -0.000891 -0.105037 0.127234 -0.284577 -0.378294 -0.292196 0.052549 -0.335758 0.133552 -0.106927 -0.236294 0.012927 -0.000946 -0.355284 -0.589412 0.090338 0.555726 -0.203552 
some -0.028467 0.235796 0.008833 -0.064772 0.115507 -0.252596 -0.317246 -0.244207 0.089280 -0.330273 0.130477 -0.114893 -0.282915 0.008639 0.020767 -0.331328 -0.569509 0.098174 0.560273 -0.220942 
so -0.065704 0.275223 -0.005013 -0.081728 0.091957 -0.252286 -0.322597 -0.269351 0.059531 -0.302560 0.109051 -0.139868 -0.259722 0.007642 0.033323 -0.359969 -0.554742 0.064219 0.538612 -0.191667 
out -0.056772 0.251682 -0.005442 -0.085757 0.121685 -0.283508 -0.333328 -0.275706 0.044530 -0.315059 0.097784 -0.134180 -0.236943 -0.006670 0.038461 -0.343012 -0.564696 0.053154 0.497178 -0.216097 
like -0.050229 0.292494 -0.037277 -0.101227 0.134095 -0.274482 -0.343111 -0.254564 0.062050 -0.322928 0.140763 -0.114840 -0.253423 -0.022369 -0.008459 -0.350695 -0.577136 0.071275 0.511230 -0.198750 
dont -0.050460 0.267002 0.008491 -0.112522 0.101428 -0.267986 -0.353645 -0.257184 0.047046 -0.317340 0.114047 -0.094963 -0.227072 -0.023231 -0.002385 -0.339873 -0.577891 0.100807 0.479938 -0.189679 
no -0.073195 0.255113 -0.012688 -0.068003 0.093440 -0.255634 -0.345696 -0.256174 0.072292 -0.344317 0.132036 -0.139894 -0.292600 -0.031225 0.037746 -0.320926 -0.593896 0.093052 0.570695 -0.233655 
its -0.070581 0.237379 0.013147 -0.104230 0.097750 -0.257686 -0.329928 -0.278876 0.076601 -0.333652 0.095661 -0.110873 -0.251963 -0.010048 0.059758 -0.342641 -0.573923 0.056512 0.555413 -0.209161 
more -0.071616 0.256767 0.008545 -0.064462 0.120275 -0.261083 -0.358554 -0.266369 0.110573 -0.341412 0.124602 -0.146949 -0.290885 -0.019665 0.047640 -0.322098 -0.562178 0.051902 0.584129 -0.254061 
had -0.082052 0.298379 -0.013139 -0.067397 0.143704 -0.281739 -0.346181 -0.266600 0.066808 -0.316355 0.095356 -0.124613 -0.250526 0.019611 0.000534 -0.373714 -0.615103 0.065510 0.554685 -0.206494 
which -0.056432 0.221556 -0.001780 -0.098974 0.119286 -0.251703 -0.352943 -0.274316 0.085931 -0.302919 0.087806 -0.154342 -0.293019 -0.012064 0.039938 -0.304144 -0.601549 0.058743 0.572631 -0.244643 
when -0.025559 0.240026 -0.018849 -0.079711 0.091804 -0.261768 -0.307840 -0.255074 0.076056 -0.307378 0.125537 -0.101954 -0.237474 -0.020035 0.054669 -0.326558 -0.586153 0.084807 0.566494 -0.241089 
get -0.043724 0.282576 -0.037051 -0.068468 0.084688 -0.267192 -0.330798 -0.271744 0.060021 -0.313390 0.103147 -0.141782 -0.241688 -0.019042 0.027194 -0.330798 -0.578781 0.080280 0.576435 -0.261609 
just -0.069272 0.248529 -0.032061 -0.054869 0.090634 -0.256137 -0.337099 -0.285933 0.048518 -0.289653 0.086343 -0.156966 -0.274065 -0.025563 0.030883 -0.346477 -0.578379 0.100348 0.521430 -0.220926 
know -0.032568 0.245274 0.012801 -0.104907 0.101302 -0.250638 -0.337147 -0.278343 0.069017 -0.328117 0.133108 -0.114244 -0.227980 0.006779 0.029180 -0.339331 -0.581696 0.094074 0.519071 -0.197170 
who -0.043258 0.256037 -0.022963 -0.089498 0.106438 -0.275398 -0.333650 -0.247697 0.078716 -0.314222 0.132613 -0.110998 -0.263525 -0.035062 0.018193 -0.326227 -0.606196 0.083466 0.544385 -0.217775 
been -0.062970 0.235346 -0.014187 -0.085801 0.115517 -0.275347 -0.334532 -0.291636 0.078292 -0.320307 0.133791 -0.132770 -0.286825 -0.003300 0.017219 -0.374676 -0.608695 0.065226 0.583475 -0.220176 
also -0.058182 0.240028 -0.017082 -0.079983 0.100727 -0.293953 -0.352970 -0.270992 0.074586 -0.316577 0.115898 -0.115253 -0.263245 -0.018035 0.032250 -0.345683 -0.587831 0.098697 0.562986 -0.234730 
than -0.025500 0.236332 -0.031046 -0.062233 0.126979 -0.273365 -0.368162 -0.281273 0.112405 -0.316291 0.095695 -0.140306 -0.292694 -0.038464 0.028682 -0.336554 -0.565481 0.106379 0.564039 -0.244782 
up -0.065408 0.264736 -0.006781 -0.081083 0.116356 -0.252593 -0.345181 -0.286701 0.095243 -0.301611 0.131811 -0.116025 -0.274209 -0.014893 0.045232 -0.316622 -0.560014 0.064225 0.550965 -0.238403 
were -0.060622 0.234446 -0.024753 -0.089027 0.116024 -0.264435 -0.354618 -0.235293 0.093119 -0.342044 0.085565 -0.143816 -0.273322 -0.011725 0.014427 -0.315493 -0.567159 0.067684 0.562098 -0.260021 
other -0.073554 0.233327 -0.017906 -0.059245 0.090461 -0.287247 -0.359929 -0.281159 0.113986 -0.331285 0.097154 -0.140917 -0.274507 -0.028688 0.052258 -0.336497 -0.563140 0.079264 0.559312 -0.229963 
their -0.026431 0.275987 -0.010571 -0.053956 0.112855 -0.263890 -0.339974 -0.244094 0.088652 -0.350490 0.110165 -0.106289 -0.291690 -0.027902 0.049713 -0.347792 -0.622114 0.099617 0.586199 -0.209606 
think -0.082166 0.289045 -0.003703 -0.082594 0.119802 -0.272899 -0.365371 -0.260838 0.082812 -0.335683 0.104922 -0.122782 -0.264134 0.019062 0.024147 -0.323498 -0.566900 0.094633 0.539368 -0.183555 
we -0.048185 0.256684 0.017281 -0.083451 0.102957 -0.303244 -0.350194 -0.244046 0.081081 -0.325383 0.137570 -0.155776 -0.278906 -0.028662 0.035118 -0.334759 -0.607436 0.074091 0.544070 -0.215061 
how -0.045365 0.246559 -0.025542 -0.065096 0.088521 -0.280581 -0.306701 -0.231947 0.093448 -0.341800 0.098022 -0.140415 -0.267326 -0.048227 0.070335 -0.305860 -0.576438 0.061275 0.591982 -0.220553 
good -0.049228 0.263628 -0.006220 -0.087928 0.090195 -0.258343 -0.341212 -0.258637 0.089983 -0.313342 0.090339 -0.124153 -0.281666 -0.028243 0.069150 -0.346192 -0.582331 0.106274 0.561125 -0.217935 
very -0.019459 0.264860 0.004425 -0.051774 0.110139 -0.258276 -0.322626 -0.271674 0.085074 -0.335082 0.116163 -0.118765 -0.289581 -0.021209 0.057627 -0.314207 -0.584018 0.077942 0.588985 -0.230288 
people -0.042755 0.243740 -0.000191 -0.064675 0.074997 -0.265157 -0.330397 -0.264954 0.095750 -0.300352 0.074645 -0.122271 -0.285366 -0.026443 0.036597 -0.312669 -0.597364 0.054561 0.544582 -0.215359 
he -0.071635 0.290775 -0.028236 -0.074920 0.127058 -0.282853 -0.345104 -0.271456 0.080384 -0.324655 0.134663 -0.118450 -0.206968 0.014526 0.032970 -0.362540 -0.560893 0.051069 0.512207 -0.230839 
im -0.035480 0.247771 0.024310 -0.090402 0.115957 -0.252694 -0.358203 -0.276086 0.090227 -0.313334 0.116024 -0.115397 -0.260692 -0.015473 0.015390 -0.325279 -0.583411 0.078385 0.563602 -0.222988 
new -0.058539 0.218766 -0.009209 -0.057252 0.091592 -0.287565 -0.347662 -0.246952 0.079100 -0.364644 0.085685 -0.153819 -0.287333 -0.018088 0.044334 -0.331239 -0.638464 0.106865 0.620942 -0.240289 
only -0.048148 0.288185 -0.022728 -0.075643 0.138108 -0.255626 -0.342805 -0.294131 0.085222 -0.305897 0.101328 -0.135949 -0.248486 0.017816 0.031772 -0.350801 -0.610550 0.085323 0.571067 -0.214564 
these -0.027718 0.210818 0.000743 -0.088057 0.117344 -0.256523 -0.329922 -0.254639 0.113165 -0.329616 0.094636 -0.149943 -0.289117 -0.002692 0.067185 -0.314573 -0.557151 0.083719 0.573254 -0.224887 
am -0.019540 0.233888 -0.014213 -0.064132 0.134098 -0.302620 -0.322780 -0.286472 0.093571 -0.352357 0.096978 -0.127386 -0.278880 0.000888 0.025888 -0.302080 -0.579920 0.112387 0.555324 -0.212006 
them -0.072998 0.277056 0.024036 -0.074409 0.123077 -0.255233 -0.363305 -0.278077 0.083358 -0.310587 0.122135 -0.111307 -0.244040 -0.019311 0.006116 -0.362512 -0.541803 0.094078 0.510608 -0.211506 
use -0.072954 0.220483 -0.005002 -0.075413 0.089877 -0.254119 -0.304739 -0.241760 0.123585 -0.319449 0.093065 -0.121382 -0.255071 -0.024636 0.086273 -0.309515 -0.586904 0.080240 0.582059 -0.240386 
should -0.039749 0.262084 -0.020566 -0.075338 0.127126 -0.287919 -0.324586 -0.289495 0.073955 -0.357494 0.129770 -0.122931 -0.281263 -0.018785 0.022050 -0.350774 -0.569171 0.072731 0.557264 -0.256005 
much -0.039493 0.226149 -0.022913 -0.072116 0.133968 -0.283798 -0.355216 -0.251162 0.060158 -0.300343 0.133925 -0.136543 -0.232679 -0.022328 -0.000039 -0.338377 -0.562480 0.078970 0.539600 -0.205636 
may -0.031029 0.260765 -0.014490 -0.045309 0.116312 -0.271034 -0.314156 -0.252222 0.131633 -0.325562 0.120643 -0.112080 -0.288904 -0.045789 0.087945 -0.311280 -0.608178 0.098587 0.591692 -0.252681 
time -0.045362 0.251266 -0.018850 -0.086348 0.130183 -0.252685 -0.339915 -0.277288 0.115266 -0.320376 0.115295 -0.109592 -0.257858 -0.008994 0.030622 -0.361964 -0.606809 0.068273 0.589180 -0.244462 
does -0.040718 0.245266 -0.018569 -0.091593 0.107675 -0.264420 -0.322503 -0.269969 0.075716 -0.314102 0.135632 -0.119644 -0.256347 -0.006158 0.025354 -0.357644 -0.606080 0.090973 0.542536 -0.242185 
because -0.025602 0.248811 -0.019293 -0.097370 0.113201 -0.270118 -0.340167 -0.259128 0.086825 -0.317685 0.104310 -0.131842 -0.278076 -0.020253 0.011643 -0.321690 -0.560432 0.096467 0.538679 -0.233173 
cars -0.021983 0.321627 0.011684 -0.099846 0.141908 -0.396113 -0.472625 -0.330080 0.149142 -0.493159 0.129249 -0.218968 -0.390527 -0.028231 0.103089 -0.459413 -0.868631 0.151011 0.834746 -0.322940 
most -0.069150 0.244978 0.015342 -0.078107 0.131490 -0.260985 -0.367890 -0.247618 0.084440 -0.348580 0.083174 -0.128155 -0.287576 -0.004070 0.026873 -0.368126 -0.590540 0.097299 0.574254 -0.213575 
medical -0.022615 0.199590 0.004917 -0.059188 0.080556 -0.284401 -0.308552 -0.212146 0.139368 -0.324572 0.079109 -0.146316 -0.301992 -0.032383 0.106375 -0.286746 -0.636901 0.103359 0.637297 -0.230812 
writes 0.022850 0.215048 -0.023961 -0.110251 0.056512 -0.266055 -0.221028 -0.219253 0.151353 -0.331040 -0.005265 -0.155387 -0.312369 -0.019170 0.165741 -0.241597 -0.614570 0.127296 0.634854 -0.184054 
could -0.047137 0.265896 -0.001074 -0.084448 0.120282 -0.263895 -0.313919 -0.241171 0.084290 -0.335745 0.118992 -0.114673 -0.264424 -0.027413 0.026083 -0.308040 -0.561027 0.109971 0.541444 -0.218445 
too 0.021264 0.231500 0.009606 -0.088025 0.059790 -0.307003 -0.269034 -0.241766 0.091402 -0.295795 0.048464 -0.104877 -0.299193 -0.048638 0.084847 -0.269698 -0.632892 0.129439 0.610995 -0.192797 
after -0.031025 0.242982 -0.035640 -0.040140 0.115193 -0.276100 -0.315110 -0.269058 0.116363 -0.334630 0.111008 -0.124386 -0.256170 -0.007928 0.069135 -0.309188 -0.569702 0.056075 0.573855 -0.203319 
then -0.063416 0.278646 0.002212 -0.094204 0.128307 -0.247102 -0.362450 -0.271621 0.091105 -0.307894 0.136835 -0.104234 -0.226861 -0.011572 0.011413 -0.351889 -0.583333 0.089359 0.552275 -0.198020 
many -0.017103 0.258758 -0.007874 -0.065949 0.107378 -0.254018 -0.316716 -0.241476 0.114040 -0.326700 0.099766 -0.118420 -0.266937 -0.000200 0.057093 -0.329617 -0.570635 0.083517 0.575629 -0.239584 
anyone -0.051289 0.264011 -0.028956 -0.067311 0.113669 -0.269786 -0.296912 -0.249404 0.104393 -0.327207 0.086643 -0.136328 -0.266924 0.010659 0.036623 -0.337298 -0.584093 0.105603 0.528103 -0.234574 
used -0.055408 0.265944 -0.018590 -0.081934 0.098936 -0.288958 -0.343720 -0.231587 0.095589 -0.316460 0.117452 -0.116486 -0.266684 0.004079 0.074299 -0.313802 -0.594160 0.084541 0.584325 -0.221612 
really -0.038388 0.230040 -0.005039 -0.078359 0.077170 -0.264077 -0.314750 -0.250843 0.097538 -0.312529 0.096698 -0.145861 -0.249289 -0.028672 0.023339 -0.311276 -0.587578 0.101927 0.569616 -0.224971 
even -0.050456 0.235326 -0.005197 -0.052359 0.120651 -0.283806 -0.354539 -0.267093 0.097264 -0.318600 0.102891 -0.126421 -0.241001 -0.028006 0.031145 -0.355620 -0.549222 0.065779 0.559380 -0.223601 
well -0.048244 0.214283 0.012412 -0.045009 0.080958 -0.274991 -0.316879 -0.255162 0.107194 -0.327523 0.109385 -0.144091 -0.285125 -0.005552 0.049399 -0.348398 -0.575580 0.081015 0.567824 -0.234144 
into -0.077143 0.273925 -0.025709 -0.040174 0.121517 -0.262974 -0.338946 -0.252569 0.097012 -0.316078 0.116139 -0.146466 -0.256657 -0.009390 0.052100 -0.353375 -0.571544 0.077193 0.573058 -0.238935 
years -0.060059 0.269244 0.006924 -0.094242 0.089172 -0.301812 -0.356522 -0.264841 0.122445 -0.336341 0.125295 -0.102721 -0.261807 -0.015840 0.045431 -0.346997 -0.587358 0.075568 0.572391 -0.227602 
us -0.035366 0.240769 -0.006881 -0.081682 0.133408 -0.261144 -0.356721 -0.253130 0.083850 -0.331129 0.124563 -0.120782 -0.272866 -0.009321 0.050991 -0.307275 -0.609172 0.111151 0.612908 -0.257735 
way -0.049542 0.269997 0.007499 -0.095086 0.126521 -0.264520 -0.347997 -0.254288 0.094992 -0.301445 0.127864 -0.149132 -0.241325 -0.001891 0.015324 -0.339008 -0.610591 0.074134 0.557127 -0.212613 
ive -0.075530 0.248662 -0.005676 -0.064903 0.134246 -0.261734 -0.323415 -0.292221 0.111813 -0.341657 0.131602 -0.108252 -0.264479 -0.028207 0.041481 -0.362735 -0.588913 0.077741 0.574051 -0.205726 
she -0.053726 0.260009 -0.000290 -0.078340 0.097683 -0.269715 -0.320869 -0.274674 0.115664 -0.315470 0.108646 -0.107440 -0.257666 0.004225 0.016687 -0.329293 -0.597809 0.068193 0.591677 -0.255592 
such -0.046254 0.264945 -0.001227 -0.089472 0.097820 -0.270810 -0.350959 -0.299420 0.110651 -0.317697 0.090175 -0.131942 -0.273040 0.001987 0.047061 -0.350693 -0.591649 0.081579 0.566615 -0.243547 
health 0.014148 0.185460 0.013270 -0.066714 0.060070 -0.290084 -0.286108 -0.217708 0.165079 -0.377999 0.032320 -0.143932 -0.312900 -0.043438 0.132142 -0.282701 -0.631451 0.107701 0.673083 -0.268376 
now -0.033092 0.228722 -0.006428 -0.061193 0.082757 -0.291684 -0.315396 -0.238632 0.105574 -0.311018 0.095413 -0.120099 -0.261194 -0.008104 0.044416 -0.318692 -0.582354 0.091262 0.550087 -0.236898 
see -0.044864 0.267368 -0.021889 -0.083109 0.122393 -0.253570 -0.354443 -0.255663 0.092520 -0.336271 0.084157 -0.121424 -0.235436 -0.003601 0.038257 -0.323608 -0.551814 0.059963 0.549365 -0.247241 
his -0.020243 0.256411 -0.026349 -0.078286 0.098028 -0.255213 -0.318856 -0.247928 0.116667 -0.339661 0.069751 -0.121765 -0.253592 -0.031242 0.069103 -0.336597 -0.604585 0.105164 0.549913 -0.220393 
make -0.034769 0.277941 0.007576 -0.095215 0.120678 -0.278371 -0.314602 -0.254823 0.055285 -0.297127 0.104068 -0.142172 -0.249237 -0.001573 0.016026 -0.310820 -0.610328 0.107827 0.565955 -0.190187 
v 0.002240 0.336907 0.014451 -0.164238 0.125363 -0.396018 -0.425143 -0.310742 0.212797 -0.470870 0.084179 -0.229576 -0.421458 -0.022194 0.168646 -0.373489 -0.942630 0.186882 0.889047 -0.277301 
since -0.068946 0.244540 -0.010664 -0.073977 0.088359 -0.288378 -0.319628 -0.262263 0.109979 -0.308932 0.101017 -0.133115 -0.284066 0.008418 0.026555 -0.322612 -0.584247 0.082609 0.576253 -0.210254 
why -0.061719 0.284491 -0.027400 -0.047520 0.111909 -0.261650 -0.339049 -0.244252 0.097213 -0.318324 0.120334 -0.142345 -0.251105 -0.022762 0.031694 -0.336663 -0.593881 0.111073 0.547771 -0.224063 
where -0.030203 0.234035 -0.002742 -0.090067 0.097111 -0.287966 -0.333649 -0.260286 0.090862 -0.341931 0.081993 -0.105523 -0.265667 -0.023305 0.028437 -0.343039 -0.567571 0.088781 0.569394 -0.226705 
back -0.075112 0.249886 -0.002230 -0.069412 0.116624 -0.279988 -0.350843 -0.263473 0.072847 -0.322183 0.112936 -0.149861 -0.262485 0.007009 0.028574 -0.356725 -0.597695 0.081027 0.584012 -0.219644 
over -0.058786 0.260109 -0.029108 -0.104821 0.115489 -0.261627 -0.348373 -0.240472 0.087829 -0.328630 0.108333 -0.109596 -0.270031 -0.011067 0.041044 -0.343427 -0.601582 0.074434 0.617077 -0.228730 
two -0.064726 0.243175 -0.016151 -0.081432 0.083996 -0.283628 -0.333366 -0.270785 0.104086 -0.329918 0.105606 -0.144285 -0.243512 -0.043238 0.058981 -0.304716 -0.619626 0.074137 0.588866 -0.240036 
problem -0.067255 0.243675 -0.029869 -0.070049 0.080257 -0.278634 -0.284975 -0.210275 0.101636 -0.307138 0.086656 -0.139265 -0.267279 -0.038590 0.071221 -0.293084 -0.573130 0.069777 0.565664 -0.208095 
same -0.052522 0.239158 -0.008029 -0.052183 0.106727 -0.266160 -0.345302 -0.280595 0.111272 -0.342315 0.075723 -0.114092 -0.278583 0.003582 0.064127 -0.348605 -0.592135 0.059687 0.546160 -0.216925 
disease -0.047703 0.243752 -0.004177 -0.048090 0.053773 -0.275422 -0.324164 -0.220636 0.125243 -0.333782 0.075562 -0.105414 -0.319662 -0.009358 0.094508 -0.301663 -0.615699 0.113603 0.619146 -0.219303 
here -0.023684 0.240522 -0.020406 -0.091860 0.127242 -0.276209 -0.340362 -0.262505 0.078060 -0.328201 0.085597 -0.132598 -0.266821 0.013956 0.034264 -0.339667 -0.579755 0.082930 0.530641 -0.212215 
take -0.031021 0.270068 0.024391 -0.063480 0.104468 -0.283674 -0.332655 -0.243113 0.103734 -0.346555 0.097944 -0.101321 -0.254155 0.013641 0.063675 -0.327666 -0.574169 0.056859 0.532430 -0.206230 
those -0.046025 0.234495 -0.025589 -0.060151 0.116100 -0.271246 -0.352060 -0.264091 0.120211 -0.339301 0.109130 -0.110203 -0.284002 -0.032176 0.066608 -0.347700 -0.600481 0.096748 0.618037 -0.213927 
go -0.064579 0.255315 -0.031298 -0.064572 0.084299 -0.278661 -0.323994 -0.254842 0.104045 -0.301707 0.106543 -0.153000 -0.269345 0.004474 0.020705 -0.314841 -0.551801 0.055174 0.550277 -0.219671 
want -0.045551 0.273977 -0.011557 -0.080719 0.119969 -0.284495 -0.305599 -0.232583 0.067805 -0.311752 0.116823 -0.122313 -0.251333 -0.020798 0.018337 -0.335656 -0.562370 0.071496 0.519601 -0.240976 
msg -0.017285 0.232950 -0.016464 -0.110868 0.112497 -0.292803 -0.299222 -0.245092 0.095368 -0.343002 0.113689 -0.148624 -0.287378 0.000791 0.051863 -0.317656 -0.644367 0.083252 0.572692 -0.229687 
cancer -0.005076 0.225324 -0.024454 -0.056397 0.058979 -0.277173 -0.287888 -0.205582 0.136351 -0.367726 0.087199 -0.123366 -0.309377 -0.031303 0.080404 -0.316079 -0.620044 0.109501 0.668319 -0.243425 
information -0.044515 0.243305 0.010247 -0.070279 0.081521 -0.262791 -0.308042 -0.220545 0.134909 -0.361707 0.093063 -0.149916 -0.260525 -0.047660 0.063152 -0.307562 -0.629042 0.115288 0.605656 -0.240248 
patients -0.035798 0.259990 -0.008584 -0.079786 0.092058 -0.281537 -0.325612 -0.255539 0.117971 -0.351451 0.113505 -0.114544 -0.279875 0.007083 0.079741 -0.324710 -0.602805 0.077398 0.590059 -0.248128 
off -0.044553 0.235210 -0.014379 -0.087526 0.078733 -0.255593 -0.288295 -0.254291 0.074495 -0.319930 0.071011 -0.124859 -0.256128 -0.044720 0.065581 -0.321365 -0.581225 0.108046 0.597830 -0.199835 
few -0.049887 0.271880 -0.032959 -0.080272 0.133954 -0.254441 -0.339802 -0.275491 0.081028 -0.299627 0.097456 -0.118249 -0.254333 -0.011546 0.026391 -0.325552 -0.565864 0.098284 0.541727 -0.245053 
first -0.058807 0.253168 -0.031508 -0.060408 0.117747 -0.255861 -0.334392 -0.277153 0.095976 -0.332596 0.109638 -0.115593 -0.289145 -0.003912 0.070180 -0.351106 -0.617187 0.069701 0.559105 -0.232175 
still -0.073895 0.252702 -0.019507 -0.076672 0.097050 -0.266904 -0.346110 -0.276955 0.094502 -0.330579 0.106490 -0.133858 -0.242193 -0.028494 0.028948 -0.342616 -0.565946 0.095003 0.542304 -0.208658 
right -0.051134 0.242770 0.020061 -0.063593 0.076220 -0.267289 -0.355933 -0.264495 0.074655 -0.332294 0.119985 -0.133676 -0.238861 -0.038922 0.043013 -0.344753 -0.556749 0.074302 0.555492 -0.206426 
help -0.024360 0.266119 0.017648 -0.055875 0.124357 -0.247288 -0.335835 -0.254110 0.109044 -0.344828 0.106690 -0.150895 -0.262043 -0.038921 0.065041 -0.324698 -0.562919 0.062217 0.553873 -0.211773 
while -0.055549 0.257557 -0.005619 -0.093443 0.122260 -0.275416 -0.332560 -0.284217 0.102965 -0.315366 0.137355 -0.126966 -0.279886 -0.040529 0.045866 -0.340373 -0.560753 0.060651 0.542601 -0.240366 
without -0.019922 0.199333 -0.018513 -0.075039 0.084311 -0.278558 -0.302006 -0.231538 0.088500 -0.314772 0.107392 -0.108867 -0.250215 -0.045840 0.042962 -0.302758 -0.582096 0.069123 0.579068 -0.220475 
said -0.041630 0.243006 -0.024081 -0.066755 0.087339 -0.283849 -0.352375 -0.286005 0.097174 -0.334634 0.097003 -0.138933 -0.263599 0.008959 0.065681 -0.323975 -0.598243 0.073358 0.587252 -0.204750 
engine -0.070922 0.359756 -0.033935 -0.115327 0.140004 -0.360396 -0.460714 -0.337554 0.133990 -0.470979 0.126220 -0.169393 -0.395526 -0.061910 0.082541 -0.455617 -0.841765 0.146868 0.837399 -0.313449 
her -0.015102 0.255144 -0.008021 -0.042270 0.082338 -0.290860 -0.329023 -0.256743 0.129744 -0.311377 0.109919 -0.105316 -0.264542 -0.030846 0.046387 -0.297215 -0.571654 0.068064 0.560439 -0.213759 
s -0.034182 0.234755 -0.015658 -0.047526 0.091947 -0.303418 -0.356933 -0.231466 0.130966 -0.373681 0.084046 -0.159498 -0.307674 -0.019676 0.073614 -0.313017 -0.635201 0.128912 0.621530 -0.248614 
better -0.053385 0.226623 0.018567 -0.052320 0.102609 -0.284328 -0.331175 -0.219277 0.123489 -0.311465 0.087822 -0.142233 -0.268197 -0.000016 0.077336 -0.308138 -0.600367 0.089480 0.557586 -0.234657 
need -0.036661 0.233549 0.015876 -0.057293 0.088643 -0.268845 -0.333210 -0.267860 0.105170 -0.318739 0.080075 -0.119855 -0.267179 -0.030302 0.058622 -0.359366 -0.595358 0.080539 0.556973 -0.241940 
being -0.058175 0.228863 0.006558 -0.088330 0.092921 -0.278054 -0.331407 -0.274931 0.087526 -0.317977 0.097781 -0.116143 -0.230017 -0.023512 0.071777 -0.346854 -0.594961 0.065170 0.569691 -0.239410 
did -0.043205 0.285163 -0.001335 -0.090353 0.111524 -0.261447 -0.357617 -0.243823 0.124595 -0.326045 0.111340 -0.112310 -0.253952 0.001476 0.052319 -0.359061 -0.592987 0.074158 0.561155 -0.220144 
number -0.024926 0.268405 -0.016015 -0.083771 0.081050 -0.326671 -0.350439 -0.261990 0.149588 -0.407556 0.099802 -0.143233 -0.335934 -0.036604 0.134714 -0.344054 -0.752659 0.114013 0.723033 -0.303422 
work -0.016727 0.272714 0.011287 -0.080481 0.087104 -0.266867 -0.328014 -0.232444 0.122869 -0.316215 0.121985 -0.135809 -0.282106 -0.008709 0.043737 -0.349683 -0.590079 0.082230 0.581366 -0.214322 
year -0.059232 0.224268 -0.003331 -0.058260 0.082939 -0.264476 -0.343813 -0.259655 0.099849 -0.338494 0.100128 -0.144659 -0.255754 -0.048459 0.092897 -0.316004 -0.590722 0.080014 0.584811 -0.218947 
sure -0.070464 0.252347 0.006735 -0.081527 0.098816 -0.256386 -0.331354 -0.271492 0.084106 -0.303503 0.128672 -0.143179 -0.277127 0.016777 0.051812 -0.346649 -0.568683 0.105304 0.559986 -0.208688 
say -0.060479 0.247593 0.002661 -0.065727 0.111576 -0.296501 -0.338413 -0.255280 0.097373 -0.310085 0.134023 -0.141165 -0.254565 -0.021874 0.028799 -0.320980 -0.571849 0.056660 0.566497 -0.207116 
never -0.043025 0.269956 -0.016891 -0.062443 0.116457 -0.271399 -0.313734 -0.261378 0.069590 -0.303641 0.095297 -0.106779 -0.249198 -0.006715 0.023128 -0.322232 -0.590747 0.072664 0.542785 -0.209415 
find -0.080181 0.259087 -0.024164 -0.076033 0.099753 -0.238975 -0.355323 -0.255046 0.087602 -0.316367 0.131375 -0.148546 -0.215315 0.001110 0.037755 -0.367151 -0.564022 0.097153 0.538101 -0.211772 
might -0.039735 0.258538 -0.010777 -0.077491 0.103014 -0.264056 -0.340701 -0.252042 0.049577 -0.314347 0.099938 -0.128991 -0.235344 -0.019857 0.021863 -0.315760 -0.555911 0.067278 0.544713 -0.197809 
cant -0.024529 0.252109 0.012632 -0.070689 0.084513 -0.273866 -0.319285 -0.219557 0.081740 -0.300247 0.091721 -0.109013 -0.294202 -0.053516 0.074836 -0.333905 -0.600380 0.110398 0.606204 -0.196480 
writesin 0.053384 0.216944 -0.003654 -0.096982 0.094979 -0.275059 -0.211289 -0.229761 0.180960 -0.355072 -0.035766 -0.143348 -0.322609 -0.040464 0.217660 -0.230900 -0.675423 0.151415 0.704297 -0.231954 
long -0.056406 0.242201 0.012841 -0.058424 0.123111 -0.286902 -0.312046 -0.268899 0.095780 -0.326535 0.098822 -0.133586 -0.251165 -0.002547 0.052572 -0.337903 -0.606331 0.117735 0.555369 -0.241395 
something -0.057422 0.247857 0.005530 -0.062698 0.099723 -0.284718 -0.377144 -0.269692 0.110281 -0.316168 0.100311 -0.139243 -0.238454 -0.007800 0.024790 -0.328960 -0.592326 0.104172 0.552869 -0.239867 
research -0.020514 0.231831 -0.026088 -0.081826 0.062434 -0.299322 -0.324102 -0.244986 0.107079 -0.356428 0.069148 -0.143163 -0.289761 -0.047828 0.102076 -0.311063 -0.626374 0.097607 0.626257 -0.215203 
every -0.070126 0.272083 0.008616 -0.077011 0.130897 -0.285595 -0.319018 -0.261395 0.097303 -0.306418 0.116639 -0.122206 -0.270847 -0.005029 0.047805 -0.326175 -0.604079 0.081095 0.581325 -0.218903 
lot -0.075200 0.242426 0.015868 -0.082797 0.123601 -0.260351 -0.361674 -0.270364 0.071148 -0.292249 0.109375 -0.151315 -0.237449 -0.014690 0.021208 -0.351079 -0.598185 0.081484 0.563281 -0.232266 
both -0.029268 0.260395 -0.021748 -0.050164 0.084205 -0.266350 -0.323692 -0.272524 0.112649 -0.315562 0.076535 -0.115446 -0.272769 -0.042865 0.084724 -0.313060 -0.625131 0.080830 0.593503 -0.249752 
through -0.036970 0.246462 -0.011615 -0.082331 0.105192 -0.264406 -0.312333 -0.253601 0.093567 -0.337041 0.087243 -0.132580 -0.244351 -0.004171 0.035597 -0.306341 -0.597362 0.102815 0.576571 -0.239507 
oil -0.068806 0.263062 -0.024684 -0.064354 0.127003 -0.301258 -0.376057 -0.294399 0.096510 -0.343415 0.125912 -0.177234 -0.312484 -0.007270 0.050648 -0.373214 -0.659888 0.088696 0.659065 -0.251998 
going -0.025396 0.235537 -0.004006 -0.074515 0.079011 -0.285185 -0.345087 -0.272360 0.099052 -0.296241 0.101626 -0.147389 -0.276521 -0.008313 0.043316 -0.331871 -0.595994 0.065188 0.562091 -0.216981 
got -0.047003 0.278490 -0.030704 -0.089363 0.091172 -0.303262 -0.322688 -0.270694 0.117312 -0.349615 0.079383 -0.145239 -0.264941 -0.023388 0.085265 -0.347764 -0.590135 0.069213 0.585545 -0.242698 
someone -0.050767 0.238064 -0.006609 -0.054127 0.110678 -0.280273 -0.314600 -0.271016 0.101820 -0.302747 0.098645 -0.106569 -0.271837 -0.023538 0.063927 -0.305163 -0.578305 0.097273 0.586607 -0.229785 
day -0.006728 0.228155 -0.006746 -0.033901 0.083856 -0.266234 -0.296450 -0.234135 0.132170 -0.310487 0.103359 -0.136208 -0.292580 -0.015233 0.107969 -0.288469 -0.568274 0.084394 0.599730 -0.212525 
food -0.078316 0.242918 -0.037867 -0.064921 0.121290 -0.286201 -0.349615 -0.284575 0.079278 -0.338078 0.110656 -0.136922 -0.281479 -0.001898 0.034539 -0.320684 -0.606069 0.080932 0.564537 -0.237570 
anything -0.071394 0.247072 -0.022817 -0.088082 0.116790 -0.285879 -0.303588 -0.265799 0.082473 -0.327365 0.100343 -0.133315 -0.234945 -0.010041 0.024062 -0.334083 -0.542265 0.092207 0.537441 -0.229373 
around -0.064453 0.228746 0.009578 -0.092696 0.115269 -0.283707 -0.336019 -0.272820 0.124856 -0.342701 0.087466 -0.152936 -0.271452 -0.029088 0.086479 -0.322838 -0.604481 0.099180 0.621416 -0.221949 
k -0.055190 0.285235 -0.014850 -0.100668 0.098962 -0.282257 -0.329573 -0.294078 0.093917 -0.389009 0.114055 -0.162212 -0.321153 -0.023891 0.062933 -0.390622 -0.710860 0.084956 0.709504 -0.243695 
enough -0.055088 0.258292 -0.025186 -0.070650 0.096254 -0.288091 -0.321441 -0.213235 0.091245 -0.313305 0.070442 -0.149687 -0.248960 0.000296 0.070666 -0.292011 -0.595383 0.093195 0.558564 -0.193225 
another -0.055259 0.228646 0.013952 -0.051248 0.087705 -0.260895 -0.298352 -0.219530 0.104814 -0.349781 0.069241 -0.142744 -0.252586 -0.040678 0.096229 -0.355465 -0.595597 0.085962 0.602546 -0.252874 
thats -0.032630 0.225158 0.008812 -0.087087 0.081693 -0.240964 -0.325178 -0.226299 0.075186 -0.309728 0.113188 -0.132336 -0.270980 -0.038302 0.047415 -0.302648 -0.572318 0.085320 0.548178 -0.230667 
water -0.021004 0.233556 0.006470 -0.097744 0.064618 -0.266334 -0.350005 -0.246905 0.132933 -0.344388 0.082105 -0.095592 -0.289160 0.010227 0.095946 -0.305225 -0.575730 0.068248 0.568735 -0.189561 
high -0.051695 0.231748 -0.016895 -0.044201 0.103933 -0.278571 -0.293305 -0.258813 0.109169 -0.332302 0.085066 -0.141853 -0.289210 -0.016882 0.087281 -0.319962 -0.608449 0.090158 0.592407 -0.197381 
best -0.029175 0.249093 0.006630 -0.062539 0.092321 -0.277526 -0.283675 -0.250872 0.091110 -0.338064 0.054526 -0.150048 -0.267337 -0.024703 0.094998 -0.325260 -0.577428 0.065987 0.584174 -0.239649 
little -0.035398 0.266507 -0.008319 -0.071737 0.120495 -0.262554 -0.351262 -0.248115 0.118691 -0.304339 0.123578 -0.111254 -0.248620 0.007513 0.040355 -0.362303 -0.577438 0.092994 0.562440 -0.230858 
problems -0.018271 0.251294 0.003761 -0.048109 0.084030 -0.287936 -0.316304 -0.221675 0.126575 -0.342690 0.092694 -0.109508 -0.281423 -0.046444 0.070631 -0.343204 -0.590663 0.092631 0.574988 -0.226320 
between -0.022674 0.209542 -0.002146 -0.084906 0.086235 -0.254099 -0.325866 -0.244873 0.093925 -0.314727 0.071679 -0.147769 -0.310018 -0.039807 0.074440 -0.340398 -0.596800 0.101140 0.635701 -0.266373 
cause -0.065352 0.273694 -0.013566 -0.085677 0.095472 -0.248454 -0.314804 -0.262805 0.081055 -0.341010 0.091235 -0.101663 -0.272477 0.007839 0.065942 -0.357246 -0.609069 0.108588 0.577332 -0.236421 
last -0.023518 0.262556 -0.000938 -0.047502 0.102622 -0.253396 -0.322419 -0.233461 0.130743 -0.372813 0.067187 -0.114132 -0.285587 -0.031383 0.048911 -0.315407 -0.629787 0.072864 0.586381 -0.257279 
question -0.029622 0.268922 -0.014801 -0.058396 0.126772 -0.269016 -0.308737 -0.266938 0.111258 -0.305738 0.094177 -0.103807 -0.270517 -0.032370 0.057320 -0.317965 -0.602673 0.057934 0.567637 -0.233149 
treatment -0.037420 0.242319 -0.011889 -0.074543 0.063353 -0.263225 -0.316368 -0.233212 0.123648 -0.310490 0.062950 -0.130680 -0.261786 -0.045320 0.085126 -0.308856 -0.621196 0.082667 0.610209 -0.248709 
doctor -0.027760 0.229236 -0.005762 -0.084004 0.092246 -0.243459 -0.317971 -0.254991 0.115726 -0.338826 0.096914 -0.145423 -0.236562 0.010481 0.037418 -0.321660 -0.574658 0.064341 0.550701 -0.223782 
thing -0.050692 0.256612 -0.004492 -0.094870 0.089498 -0.291898 -0.384935 -0.281828 0.134827 -0.330552 0.118850 -0.145344 -0.260783 0.007996 0.036507 -0.366382 -0.599611 0.098226 0.558665 -0.257429 
read -0.046311 0.248775 -0.005251 -0.111990 0.084382 -0.249263 -0.330175 -0.246616 0.068262 -0.339134 0.109250 -0.148148 -0.242687 -0.012000 0.045565 -0.309666 -0.614593 0.063445 0.573312 -0.209510 
university 0.014281 0.225690 -0.001550 -0.046961 0.037515 -0.281486 -0.291870 -0.230263 0.130585 -0.378403 0.038170 -0.137237 -0.291484 -0.015099 0.163276 -0.268644 -0.639222 0.139931 0.677525 -0.251141 
put -0.035718 0.248858 -0.017124 -0.096247 0.105718 -0.291942 -0.359534 -0.272251 0.098414 -0.322899 0.126357 -0.157815 -0.286045 -0.013759 0.075088 -0.321302 -0.593437 0.062604 0.563856 -0.255658 
etc -0.033888 0.246058 -0.020532 -0.077280 0.073049 -0.287093 -0.325338 -0.263975 0.111501 -0.328840 0.105000 -0.117884 -0.277051 -0.006133 0.063597 -0.321423 -0.603302 0.077674 0.581972 -0.222312 
point -0.048962 0.256865 -0.003683 -0.095395 0.107576 -0.266781 -0.329936 -0.241761 0.082048 -0.343625 0.082487 -0.130536 -0.275860 -0.025946 0.027773 -0.314999 -0.610512 0.075870 0.546095 -0.213343 
email -0.010600 0.226083 -0.003323 -0.076344 0.096573 -0.283261 -0.325530 -0.269763 0.092502 -0.328639 0.085741 -0.126140 -0.246249 -0.036289 0.089475 -0.284697 -0.613013 0.086402 0.560491 -0.239466 
heard -0.035499 0.275700 0.010205 -0.054095 0.126824 -0.250610 -0.296832 -0.266702 0.086127 -0.344973 0.068596 -0.124886 -0.266339 -0.039977 0.056051 -0.319333 -0.591306 0.059811 0.550242 -0.216477 
gordon 0.149055 0.192057 -0.011583 -0.025821 0.055113 -0.324466 -0.194740 -0.168322 0.136131 -0.320582 -0.127311 -0.155384 -0.320641 -0.099973 0.215022 -0.246076 -0.741617 0.209134 0.822566 -0.179912 
believe -0.026463 0.249191 -0.018280 -0.075481 0.103246 -0.268118 -0.311450 -0.247601 0.112491 -0.322508 0.080594 -0.142902 -0.261801 -0.041574 0.019335 -0.331409 -0.599942 0.108193 0.552190 -0.198835 
price -0.029838 0.314410 0.017415 -0.094606 0.106943 -0.323459 -0.390905 -0.323976 0.123478 -0.444862 0.087877 -0.176968 -0.315856 -0.051928 0.089721 -0.421750 -0.781361 0.127471 0.774068 -0.293015 
doesnt -0.041114 0.261365 -0.030349 -0.064914 0.101837 -0.264051 -0.331797 -0.251546 0.124503 -0.318210 0.087206 -0.102432 -0.265701 -0.017337 0.058917 -0.332064 -0.566121 0.079889 0.584925 -0.209969 
made -0.033651 0.249190 -0.027505 -0.052487 0.100668 -0.294602 -0.322006 -0.247139 0.069266 -0.303232 0.102140 -0.100838 -0.257952 -0.027449 0.037345 -0.319469 -0.575478 0.104312 0.557558 -0.237403 
down -0.021487 0.234321 -0.012976 -0.076014 0.102084 -0.276465 -0.355324 -0.269651 0.108927 -0.331109 0.119315 -0.108192 -0.257834 -0.038246 0.070412 -0.345584 -0.595749 0.098829 0.573629 -0.231778 
seems -0.028733 0.253964 -0.005406 -0.046333 0.106951 -0.283426 -0.301901 -0.253536 0.111820 -0.312017 0.103393 -0.110856 -0.280712 -0.015826 0.029673 -0.330914 -0.571149 0.109179 0.560553 -0.242754 
system -0.056902 0.216822 0.008151 -0.055396 0.120851 -0.289079 -0.322353 -0.242285 0.092667 -0.332705 0.073777 -0.103482 -0.267866 -0.038795 0.069586 -0.329314 -0.575195 0.091122 0.599438 -0.218980 
ford -0.046818 0.333124 0.020532 -0.103852 0.123254 -0.390658 -0.404822 -0.357243 0.164577 -0.479263 0.099650 -0.186426 -0.383665 -0.013999 0.094775 -0.451511 -0.797879 0.107521 0.777613 -0.309567 
under -0.041836 0.264062 -0.012994 -0.050868 0.102877 -0.253930 -0.311575 -0.232930 0.101255 -0.347756 0.087633 -0.107492 -0.283269 -0.032840 0.031223 -0.342554 -0.610233 0.086808 0.578773 -0.215872 
before -0.054271 0.243204 -0.015412 -0.078046 0.079764 -0.298400 -0.331197 -0.240836 0.119420 -0.349282 0.109764 -0.144670 -0.273920 -0.026931 0.057042 -0.308886 -0.604522 0.072801 0.574605 -0.216845 
look -0.048826 0.260325 0.005663 -0.053712 0.112535 -0.279849 -0.354566 -0.236923 0.094736 -0.345384 0.117003 -0.120789 -0.283915 0.009402 0.055618 -0.305369 -0.571760 0.094577 0.571347 -0.220880 
diet -0.026874 0.236489 -0.008588 -0.061510 0.071252 -0.276006 -0.289416 -0.231168 0.093308 -0.337604 0.106000 -0.107149 -0.263414 -0.022352 0.062964 -0.339411 -0.585631 0.116505 0.587997 -0.243836 
please -0.012381 0.243335 -0.017135 -0.059179 0.119825 -0.268926 -0.329783 -0.262148 0.108288 -0.345151 0.061056 -0.127466 -0.248970 -0.039389 0.092467 -0.326834 -0.580121 0.094148 0.615392 -0.207112 
id -0.043567 0.249799 0.011158 -0.082228 0.140184 -0.285022 -0.313386 -0.252324 0.099560 -0.363267 0.115622 -0.154335 -0.287710 -0.000951 0.026835 -0.319772 -0.597632 0.081663 0.598826 -0.237752 
case -0.040714 0.269725 0.007753 -0.083491 0.093745 -0.297042 -0.344652 -0.267315 0.088946 -0.323182 0.113144 -0.111268 -0.257117 -0.012957 0.050141 -0.329336 -0.603554 0.069643 0.576178 -0.214400 
dealer -0.019722 0.342637 -0.030986 -0.114385 0.127261 -0.367213 -0.442042 -0.366528 0.139792 -0.454502 0.130524 -0.171197 -0.365453 -0.050005 0.096152 -0.471273 -0.868642 0.127747 0.849725 -0.333715 
body -0.034641 0.246737 -0.009971 -0.084426 0.121098 -0.298283 -0.320996 -0.233874 0.093951 -0.315610 0.115112 -0.109210 -0.299963 -0.019929 0.039677 -0.332641 -0.580180 0.076353 0.571000 -0.210328 
probably -0.017014 0.245370 0.011331 -0.079988 0.074582 -0.254813 -0.319501 -0.262605 0.108373 -0.346527 0.107215 -0.109144 -0.286360 -0.029618 0.051366 -0.306028 -0.561773 0.083184 0.579016 -0.208783 
j 0.026681 0.225287 -0.003457 -0.067641 0.085392 -0.288773 -0.259232 -0.175246 0.137429 -0.351160 0.008505 -0.153741 -0.317054 -0.041081 0.161270 -0.285803 -0.633469 0.144730 0.637706 -0.224886 
speed -0.038031 0.300133 -0.004180 -0.071654 0.122355 -0.341799 -0.436767 -0.301683 0.157192 -0.422163 0.146940 -0.168378 -0.326489 -0.037687 0.089808 -0.383085 -0.741161 0.145716 0.744088 -0.274430 
science -0.044501 0.242296 -0.022983 -0.075173 0.109706 -0.274160 -0.314673 -0.222160 0.109968 -0.348525 0.056294 -0.108306 -0.314874 -0.006975 0.101669 -0.302341 -0.669108 0.097216 0.632425 -0.254622 
try -0.032515 0.254175 -0.023578 -0.089692 0.090310 -0.282391 -0.310528 -0.276434 0.083561 -0.307558 0.107746 -0.141817 -0.240996 0.006072 0.052810 -0.339802 -0.569020 0.104330 0.563305 -0.238025 
course -0.047913 0.262123 -0.019227 -0.059655 0.089666 -0.258056 -0.324866 -0.244615 0.110771 -0.337291 0.111703 -0.119718 -0.265049 0.015492 0.056511 -0.370311 -0.588157 0.106128 0.562876 -0.204194 
things -0.043774 0.270925 -0.002519 -0.091547 0.102683 -0.277339 -0.351993 -0.275627 0.078768 -0.298385 0.110846 -0.140791 -0.281310 -0.036420 0.061884 -0.343701 -0.610491 0.060338 0.555778 -0.229491 
fact -0.067393 0.222322 -0.014275 -0.059238 0.092517 -0.268101 -0.309568 -0.251747 0.088401 -0.348669 0.062592 -0.122846 -0.291297 -0.016156 0.075197 -0.320854 -0.606484 0.078612 0.583541 -0.223756 
less -0.023931 0.210255 -0.011226 -0.043938 0.103819 -0.282271 -0.324604 -0.231787 0.125053 -0.357500 0.117286 -0.152169 -0.284853 -0.013593 0.067822 -0.325911 -0.594870 0.106852 0.628599 -0.226346 
own -0.042323 0.268983 -0.002867 -0.055234 0.084634 -0.284767 -0.344001 -0.225664 0.107441 -0.326322 0.093690 -0.106472 -0.248296 0.002651 0.047576 -0.308739 -0.607064 0.076609 0.543414 -0.226636 
david 0.024653 0.217633 0.020036 -0.056999 0.048346 -0.261941 -0.245026 -0.191226 0.168942 -0.320740 0.039204 -0.121318 -0.286686 -0.024176 0.177216 -0.259485 -0.630430 0.131795 0.653157 -0.243260 
getting -0.032759 0.234643 -0.010793 -0.074631 0.073375 -0.264343 -0.319803 -0.244992 0.097761 -0.314110 0.084760 -0.144885 -0.272130 -0.042440 0.076674 -0.298316 -0.575591 0.090041 0.585369 -0.239548 
drive -0.063967 0.321540 -0.019164 -0.106645 0.103859 -0.366693 -0.373724 -0.311514 0.129503 -0.432135 0.116048 -0.144658 -0.354728 -0.012412 0.057754 -0.400711 -0.765673 0.144565 0.764783 -0.276908 
p 0.024681 0.241037 0.020211 -0.064444 0.091469 -0.296640 -0.261029 -0.192099 0.133813 -0.305628 0.012883 -0.163661 -0.310843 -0.035974 0.146299 -0.262861 -0.655068 0.143983 0.690704 -0.216779 
found -0.029007 0.244954 -0.017478 -0.091250 0.123497 -0.272101 -0.311865 -0.251677 0.117523 -0.310444 0.084348 -0.100696 -0.269583 -0.014043 0.063683 -0.324780 -0.569522 0.105105 0.565219 -0.199594 
study -0.019635 0.240410 -0.021708 -0.056224 0.097627 -0.271706 -0.289211 -0.238066 0.140852 -0.349671 0.090328 -0.143468 -0.266168 -0.016980 0.089775 -0.310342 -0.570917 0.086439 0.596165 -0.226839 
old -0.041853 0.232003 0.003387 -0.069195 0.123465 -0.295386 -0.345891 -0.272880 0.110391 -0.365056 0.075359 -0.142951 -0.277264 -0.039972 0.082287 -0.323446 -0.604060 0.088317 0.615986 -0.237476 
looking -0.056940 0.254544 -0.004556 -0.080269 0.087313 -0.247641 -0.290907 -0.234652 0.116452 -0.314868 0.097216 -0.126585 -0.285791 0.002374 0.080940 -0.339316 -0.593832 0.104362 0.581000 -0.230073 
vitamin -0.019433 0.202938 0.002232 -0.077142 0.084653 -0.269203 -0.268431 -0.209155 0.109479 -0.347924 0.053226 -0.141159 -0.259734 -0.022676 0.084715 -0.285819 -0.599007 0.110825 0.592181 -0.221032 
hiv 0.011561 0.194489 -0.003591 -0.062916 0.052398 -0.301741 -0.321777 -0.205401 0.144013 -0.362501 0.036966 -0.128077 -0.325189 -0.037174 0.120293 -0.285515 -0.651026 0.112183 0.657452 -0.262756 
part -0.056012 0.229763 -0.022712 -0.076613 0.105583 -0.247653 -0.336354 -0.246727 0.128386 -0.328388 0.067982 -0.115220 -0.252882 0.005659 0.061730 -0.335207 -0.588629 0.103026 0.618229 -0.217160 
great -0.032572 0.208813 0.012773 -0.101581 0.088111 -0.253930 -0.319062 -0.236927 0.109658 -0.314859 0.081009 -0.148333 -0.289969 -0.030321 0.060112 -0.295214 -0.589475 0.079296 0.587785 -0.227444 
real -0.043449 0.236518 0.003485 -0.082911 0.110131 -0.280554 -0.309514 -0.241430 0.116851 -0.314088 0.073106 -0.131812 -0.292787 -0.014102 0.066038 -0.286817 -0.598175 0.085713 0.585386 -0.201527 
our -0.035106 0.227033 -0.012741 -0.084377 0.067664 -0.299692 -0.302253 -0.272375 0.096232 -0.344274 0.101328 -0.105892 -0.295344 -0.026981 0.085460 -0.336240 -0.588284 0.062021 0.570886 -0.253766 
using -0.023055 0.257817 -0.013912 -0.056532 0.071792 -0.315075 -0.307193 -0.242846 0.110782 -0.336106 0.118355 -0.143650 -0.287301 -0.030579 0.078919 -0.333669 -0.608720 0.079906 0.603229 -0.237079 
available -0.031376 0.262419 0.021014 -0.050899 0.096286 -0.303299 -0.303750 -0.253817 0.141857 -0.340776 0.095833 -0.113391 -0.273719 -0.012172 0.082635 -0.312225 -0.616670 0.086682 0.605647 -0.248172 
called -0.039936 0.229346 -0.007566 -0.084997 0.088332 -0.260353 -0.324268 -0.239595 0.108573 -0.319587 0.093859 -0.129311 -0.265567 -0.038172 0.054705 -0.304186 -0.582895 0.106915 0.570643 -0.216820 
aids -0.000541 0.193087 -0.000167 -0.059083 0.077422 -0.270782 -0.305584 -0.205653 0.114087 -0.328640 0.071748 -0.115584 -0.276088 -0.009269 0.115604 -0.295525 -0.614753 0.122028 0.650678 -0.237979 
pain -0.062236 0.258272 -0.024527 -0.062255 0.123866 -0.268444 -0.311967 -0.281414 0.088136 -0.297832 0.105643 -0.147372 -0.284062 -0.029573 0.050014 -0.318224 -0.580197 0.063357 0.570371 -0.220037 
medicine -0.031322 0.223608 0.002439 -0.062343 0.057118 -0.267241 -0.278173 -0.192904 0.117602 -0.341487 0.070942 -0.120238 -0.259892 -0.028021 0.088642 -0.288228 -0.612919 0.113852 0.607420 -0.216877 
quite -0.021334 0.252247 0.012294 -0.072182 0.096338 -0.260455 -0.352339 -0.274040 0.118962 -0.346962 0.116274 -0.150940 -0.283523 -0.045786 0.036043 -0.330391 -0.591230 0.112753 0.587541 -0.231484 
candida -0.023722 0.219515 -0.032993 -0.070335 0.044580 -0.280227 -0.279335 -0.222036 0.137217 -0.346024 0.033885 -0.087618 -0.268283 -0.048821 0.132589 -0.302483 -0.584165 0.113560 0.634954 -0.204228 
though -0.033141 0.259353 -0.009474 -0.039460 0.095326 -0.265405 -0.329041 -0.222279 0.095146 -0.344709 0.113394 -0.121238 -0.250801 -0.010719 0.050790 -0.349477 -0.579308 0.083819 0.536054 -0.243880 
b -0.008111 0.211606 -0.001261 -0.062017 0.080219 -0.261038 -0.307182 -0.228336 0.142995 -0.354963 0.040441 -0.138013 -0.293447 -0.027166 0.094798 -0.306475 -0.634900 0.101275 0.628743 -0.243177 
info -0.046222 0.196051 0.002694 -0.070719 0.098588 -0.245719 -0.300955 -0.210162 0.129971 -0.303362 0.047421 -0.101638 -0.281177 -0.031717 0.078338 -0.278865 -0.593872 0.099570 0.599383 -0.192765 
different -0.078285 0.229434 -0.016474 -0.090948 0.083960 -0.305052 -0.337033 -0.275426 0.110108 -0.324589 0.109890 -0.152532 -0.298945 -0.021369 0.071617 -0.350757 -0.576870 0.106023 0.575685 -0.235806 
keep -0.034385 0.259218 -0.010604 -0.049729 0.091271 -0.294910 -0.351130 -0.240751 0.089721 -0.304880 0.097587 -0.111388 -0.261030 -0.033994 0.033675 -0.305366 -0.603457 0.078624 0.579152 -0.224960 
done -0.029548 0.248963 0.003881 -0.080620 0.102116 -0.259462 -0.357439 -0.259902 0.077299 -0.349758 0.105838 -0.111643 -0.290524 -0.006229 0.043113 -0.341362 -0.581544 0.068224 0.578513 -0.236571 
least -0.055219 0.241387 -0.008332 -0.090580 0.082221 -0.284117 -0.317220 -0.240241 0.087585 -0.324139 0.092244 -0.111669 -0.269426 -0.026588 0.043279 -0.350210 -0.590377 0.104992 0.598885 -0.253337 
must -0.045287 0.270172 0.006551 -0.083750 0.109096 -0.272880 -0.324262 -0.246990 0.092125 -0.314180 0.095809 -0.132416 -0.281178 -0.017604 0.033177 -0.342062 -0.599108 0.087446 0.592914 -0.212984 
months -0.030875 0.240110 -0.020871 -0.040143 0.099124 -0.278887 -0.331330 -0.233324 0.107289 -0.305166 0.081569 -0.149858 -0.294102 0.006186 0.050924 -0.319241 -0.588332 0.095146 0.570989 -0.247833 
give -0.028462 0.246578 0.002652 -0.090151 0.093137 -0.253137 -0.348551 -0.254300 0.088437 -0.307779 0.082215 -0.151681 -0.238153 -0.001507 0.063466 -0.323544 -0.586949 0.079171 0.558465 -0.225800 
group -0.046169 0.256788 0.022844 -0.054581 0.076535 -0.276830 -0.279182 -0.224412 0.116189 -0.350405 0.055358 -0.117749 -0.258246 0.003733 0.092965 -0.325202 -0.619799 0.077363 0.602822 -0.211644 
buy -0.030754 0.276813 -0.025430 -0.067857 0.114297 -0.299587 -0.328869 -0.299902 0.078142 -0.360173 0.105287 -0.136439 -0.300925 -0.003952 0.069777 -0.384459 -0.678802 0.072019 0.671418 -0.225282 
during -0.035511 0.227903 -0.020363 -0.052504 0.104128 -0.296024 -0.325783 -0.263213 0.115851 -0.321719 0.099677 -0.120460 -0.265207 -0.004715 0.048619 -0.327639 -0.566230 0.093740 0.597823 -0.214715 
bad -0.023552 0.222527 -0.006432 -0.044369 0.105730 -0.257162 -0.291867 -0.229110 0.119407 -0.307710 0.095410 -0.140713 -0.246493 -0.043175 0.069306 -0.312390 -0.584695 0.069654 0.564126 -0.196796 
april -0.017902 0.225153 0.022689 -0.077602 0.078613 -0.357478 -0.353765 -0.255326 0.203686 -0.420454 0.039399 -0.179240 -0.362733 -0.057561 0.161468 -0.345467 -0.770823 0.136832 0.806852 -0.297843 
ever -0.059912 0.252562 0.003245 -0.097823 0.090661 -0.308127 -0.335938 -0.276300 0.117413 -0.348791 0.082388 -0.156478 -0.263434 -0.033940 0.079679 -0.334580 -0.611535 0.114990 0.578140 -0.241068 
each -0.020426 0.243371 -0.020129 -0.061333 0.102068 -0.255437 -0.304051 -0.260730 0.123777 -0.316112 0.114606 -0.130612 -0.260642 -0.051192 0.062195 -0.302302 -0.598041 0.100981 0.598421 -0.236415 
having -0.037561 0.266302 -0.020067 -0.079824 0.080231 -0.258214 -0.331211 -0.260477 0.102516 -0.344988 0.112712 -0.102619 -0.263018 -0.031245 0.043924 -0.313218 -0.564081 0.058990 0.560446 -0.221003 
come -0.062773 0.242858 -0.020341 -0.089277 0.111390 -0.282189 -0.345804 -0.247972 0.111564 -0.325143 0.085863 -0.141868 -0.286671 -0.008408 0.023751 -0.361430 -0.621621 0.085368 0.562106 -0.244978 
care -0.041110 0.239953 -0.001373 -0.042122 0.067283 -0.293783 -0.303073 -0.226725 0.141399 -0.371831 0.055607 -0.111211 -0.274118 -0.047320 0.115424 -0.332624 -0.613104 0.106964 0.632091 -0.241917 
ago -0.065782 0.219798 -0.006665 -0.051212 0.129690 -0.280551 -0.320485 -0.267100 0.104551 -0.333363 0.107675 -0.138077 -0.259544 -0.004872 0.054954 -0.319543 -0.636756 0.075026 0.592197 -0.214727 
seen -0.047642 0.260547 0.014716 -0.060070 0.091453 -0.262424 -0.323130 -0.277937 0.090972 -0.315494 0.067460 -0.120491 -0.271795 -0.008013 0.045287 -0.338923 -0.594199 0.074805 0.601257 -0.197633 
youre -0.014343 0.230452 0.019030 -0.050451 0.083598 -0.258280 -0.283761 -0.237211 0.112333 -0.336982 0.113461 -0.125070 -0.253488 -0.012983 0.078109 -0.332780 -0.557192 0.066103 0.568185 -0.220334 
john 0.007303 0.241249 0.025350 -0.080403 0.085142 -0.288507 -0.307075 -0.237750 0.150418 -0.312498 0.029400 -0.169264 -0.303417 -0.044696 0.113061 -0.284485 -0.584336 0.091284 0.619468 -0.228443 
told -0.046112 0.217373 -0.000884 -0.046066 0.090812 -0.266206 -0.296968 -0.254485 0.119505 -0.327660 0.095250 -0.136374 -0.236578 0.009718 0.027705 -0.332164 -0.582507 0.066895 0.550326 -0.227036 
however -0.057463 0.264633 -0.000705 -0.077321 0.090324 -0.274167 -0.333334 -0.263403 0.119917 -0.325678 0.085442 -0.125147 -0.292400 -0.027064 0.055161 -0.355692 -0.597120 0.061571 0.560139 -0.218882 
left -0.035240 0.231841 -0.008834 -0.061684 0.084528 -0.277803 -0.342481 -0.253498 0.097746 -0.370505 0.110304 -0.126262 -0.298739 -0.032088 0.069544 -0.352649 -0.586408 0.073812 0.621580 -0.234068 
tell -0.048380 0.256600 -0.016163 -0.067191 0.083646 -0.237078 -0.299960 -0.262361 0.090063 -0.293022 0.091929 -0.103757 -0.241653 -0.013970 0.057843 -0.308705 -0.589958 0.082865 0.531319 -0.230041 
infection -0.006356 0.229265 -0.019920 -0.065588 0.069351 -0.276678 -0.290322 -0.231864 0.155335 -0.364056 0.062788 -0.100052 -0.313504 -0.049103 0.101248 -0.294446 -0.613989 0.116726 0.638793 -0.239909 
didnt -0.035756 0.267460 -0.031082 -0.050374 0.126922 -0.309237 -0.338258 -0.287390 0.098172 -0.332454 0.094334 -0.128635 -0.259098 -0.021871 0.058190 -0.327173 -0.613437 0.098362 0.573771 -0.238097 
side -0.050296 0.225863 -0.039405 -0.066944 0.066254 -0.278917 -0.356316 -0.249856 0.107471 -0.329531 0.095633 -0.120621 -0.263981 -0.001701 0.042043 -0.365099 -0.589487 0.092025 0.580641 -0.250259 
else -0.059064 0.260685 -0.011142 -0.088033 0.113856 -0.273963 -0.296196 -0.239527 0.081668 -0.335005 0.111048 -0.138574 -0.257332 -0.033556 0.032283 -0.316899 -0.558188 0.096737 0.537130 -0.242561 
always -0.061484 0.228643 0.022859 -0.095583 0.111737 -0.289719 -0.305921 -0.258576 0.068148 -0.328114 0.113027 -0.112158 -0.243683 -0.002081 0.040276 -0.350100 -0.595142 0.102347 0.551450 -0.218821 
far -0.066293 0.225185 -0.013175 -0.059836 0.086617 -0.271205 -0.334615 -0.243940 0.123831 -0.309772 0.073046 -0.111627 -0.301215 -0.020449 0.045746 -0.339827 -0.577265 0.069029 0.563731 -0.236903 
clinical -0.035199 0.222125 0.015332 -0.065429 0.076913 -0.268685 -0.288150 -0.220551 0.143522 -0.345885 0.091570 -0.111592 -0.272737 -0.009502 0.077577 -0.281679 -0.591365 0.114171 0.640157 -0.258769 
effects -0.015625 0.247495 -0.008830 -0.088986 0.084581 -0.290833 -0.340604 -0.245064 0.086300 -0.333863 0.083982 -0.140527 -0.306266 -0.014987 0.053239 -0.344335 -0.624955 0.086533 0.596139 -0.203223 
drug -0.043043 0.219993 0.003300 -0.044542 0.077096 -0.290678 -0.322062 -0.216193 0.112527 -0.334039 0.053307 -0.105321 -0.289238 -0.006167 0.092916 -0.315094 -0.608582 0.074897 0.645482 -0.235684 
effect -0.033432 0.228548 -0.019166 -0.041819 0.076326 -0.261036 -0.329764 -0.257832 0.071886 -0.308343 0.091985 -0.131620 -0.273310 -0.035676 0.042758 -0.333011 -0.580836 0.101839 0.570260 -0.230602 
actually -0.053220 0.225883 -0.030596 -0.081277 0.068959 -0.263386 -0.336468 -0.226732 0.116926 -0.329169 0.110247 -0.138153 -0.251638 -0.009752 0.059584 -0.344206 -0.562304 0.087207 0.593955 -0.215142 
insurance -0.024623 0.254809 0.035874 -0.075613 0.134798 -0.285467 -0.279072 -0.243603 0.078395 -0.330879 0.093591 -0.118100 -0.297405 -0.029495 0.088527 -0.328159 -0.612094 0.101349 0.625019 -0.205957 
studies -0.034137 0.226656 -0.005529 -0.047401 0.096450 -0.294941 -0.321902 -0.243927 0.131927 -0.352182 0.070365 -0.138495 -0.275759 -0.008542 0.042400 -0.333143 -0.610617 0.111019 0.589778 -0.221820 
change -0.073464 0.267655 -0.024528 -0.078043 0.082446 -0.287037 -0.353276 -0.249353 0.104377 -0.321178 0.141997 -0.165373 -0.276210 0.002268 0.046555 -0.327792 -0.588384 0.102626 0.603364 -0.205474 
kind -0.024443 0.269989 -0.026158 -0.060409 0.086982 -0.281626 -0.305542 -0.278153 0.087305 -0.315999 0.108243 -0.121007 -0.268908 0.002358 0.054354 -0.344706 -0.588102 0.070209 0.562136 -0.208121 
miles -0.079264 0.288314 0.011880 -0.059312 0.120706 -0.346059 -0.384291 -0.296840 0.151108 -0.422852 0.139690 -0.140803 -0.381446 -0.054914 0.100311 -0.415337 -0.783917 0.120224 0.766583 -0.297374 
nothing -0.027588 0.273605 -0.029813 -0.089068 0.096654 -0.273346 -0.351780 -0.260230 0.110668 -0.316372 0.121652 -0.104164 -0.267551 -0.025787 0.030529 -0.342739 -0.579864 0.111023 0.587009 -0.252483 
doctors -0.058757 0.231539 -0.009062 -0.089828 0.080466 -0.280994 -0.313391 -0.245574 0.088615 -0.311300 0.084142 -0.098562 -0.280663 -0.023269 0.028282 -0.316528 -0.593057 0.102306 0.537425 -0.218650 
steve -0.016303 0.245077 -0.017153 -0.066239 0.102746 -0.256490 -0.300246 -0.208052 0.125977 -0.328980 0.043701 -0.107524 -0.297123 -0.016526 0.096590 -0.278336 -0.650883 0.103625 0.643931 -0.231693 
maybe -0.063623 0.258442 -0.030696 -0.090008 0.112295 -0.280572 -0.337435 -0.253701 0.081487 -0.330927 0.125630 -0.146524 -0.294525 -0.013289 0.074536 -0.360375 -0.589098 0.077528 0.574754 -0.244794 
r -0.012767 0.256354 0.001986 -0.070298 0.117596 -0.309516 -0.334805 -0.251026 0.125370 -0.330832 0.061433 -0.170154 -0.286758 -0.020727 0.110712 -0.293395 -0.644535 0.125413 0.678452 -0.235488 
evidence -0.033693 0.218954 -0.020803 -0.070921 0.086726 -0.257630 -0.353466 -0.272073 0.117953 -0.352430 0.117414 -0.120291 -0.295471 -0.000881 0.042332 -0.329624 -0.634559 0.077015 0.611571 -0.221829 
often -0.035955 0.269430 -0.008466 -0.064055 0.107071 -0.292425 -0.336491 -0.244484 0.077094 -0.338031 0.105261 -0.126004 -0.259098 0.011385 0.049120 -0.353571 -0.605468 0.077935 0.567784 -0.237822 
national -0.003392 0.229328 -0.004683 -0.038987 0.098898 -0.294695 -0.347575 -0.214920 0.133723 -0.368059 0.089786 -0.147356 -0.313842 -0.016086 0.109818 -0.321618 -0.688523 0.096033 0.705451 -0.252943 
again -0.037139 0.276435 0.001369 -0.070181 0.125224 -0.256711 -0.346697 -0.255799 0.102136 -0.312037 0.110878 -0.112533 -0.233007 -0.015924 0.052240 -0.345077 -0.591192 0.098580 0.546538 -0.234080 
ill -0.025487 0.222079 -0.010850 -0.058967 0.088864 -0.273585 -0.304453 -0.261587 0.122383 -0.354762 0.111802 -0.129116 -0.268783 -0.009711 0.077122 -0.339644 -0.603288 0.070208 0.576017 -0.242336 
experience -0.041006 0.254697 -0.017396 -0.103432 0.126765 -0.288085 -0.340085 -0.257646 0.108605 -0.348058 0.090098 -0.107665 -0.260602 -0.039595 0.031321 -0.326466 -0.588966 0.091870 0.542663 -0.222240 
general -0.020767 0.208250 0.023687 -0.080203 0.076318 -0.299205 -0.292399 -0.248392 0.132936 -0.336266 0.100658 -0.112130 -0.264214 -0.008426 0.073411 -0.329203 -0.620252 0.120301 0.595860 -0.209303 
yeast -0.040051 0.220923 0.010293 -0.044484 0.049705 -0.278199 -0.272590 -0.242383 0.106399 -0.351987 0.060216 -0.099743 -0.305669 -0.052451 0.111979 -0.299246 -0.607885 0.097201 0.618241 -0.247623 
taking -0.023714 0.224776 0.013633 -0.046756 0.112032 -0.287947 -0.296465 -0.220601 0.118586 -0.354235 0.087459 -0.098473 -0.286833 -0.026497 0.079664 -0.297020 -0.595871 0.104968 0.592327 -0.214001 
post -0.045189 0.227052 -0.016477 -0.050879 0.102094 -0.265079 -0.314483 -0.241609 0.110264 -0.328836 0.086449 -0.134110 -0.270468 -0.010012 0.081411 -0.342195 -0.604724 0.093481 0.553833 -0.240097 
rather -0.051372 0.217325 -0.019823 -0.065093 0.118962 -0.275047 -0.332087 -0.232212 0.126151 -0.322408 0.104369 -0.105544 -0.262098 -0.002813 0.077053 -0.312783 -0.591080 0.104778 0.584095 -0.244322 
small -0.031823 0.256901 -0.004012 -0.051820 0.121812 -0.278771 -0.319964 -0.240418 0.111205 -0.309659 0.113479 -0.113581 -0.270246 -0.030233 0.066853 -0.356428 -0.588098 0.100296 0.593154 -0.230496 
either -0.066807 0.222293 0.003331 -0.079502 0.117833 -0.256366 -0.315348 -0.231237 0.088842 -0.323813 0.085275 -0.120866 -0.278868 -0.040831 0.054605 -0.353014 -0.589039 0.087596 0.582631 -0.241793 
several -0.029978 0.258637 0.003397 -0.049457 0.090658 -0.302465 -0.327624 -0.279523 0.108501 -0.330162 0.086903 -0.139044 -0.262000 0.003455 0.045419 -0.328369 -0.609872 0.108656 0.601063 -0.252099 
big -0.035066 0.241520 0.012191 -0.051656 0.111333 -0.286326 -0.350033 -0.250651 0.136042 -0.343631 0.073865 -0.135388 -0.294345 -0.046022 0.075756 -0.335347 -0.642476 0.121080 0.630401 -0.256186 
service -0.025806 0.267808 -0.009554 -0.045402 0.084281 -0.286648 -0.347433 -0.273609 0.140694 -0.381801 0.071461 -0.120824 -0.286431 -0.035170 0.090410 -0.345618 -0.638703 0.117690 0.672315 -0.274429 
days -0.031484 0.244104 -0.011283 -0.089034 0.067029 -0.293008 -0.295696 -0.226902 0.127370 -0.351903 0.097967 -0.106145 -0.275660 -0.020318 0.054636 -0.305427 -0.620104 0.097895 0.580260 -0.260169 
usually -0.048785 0.215594 0.003590 -0.066106 0.117628 -0.270319 -0.341273 -0.269896 0.109420 -0.304936 0.115024 -0.142377 -0.270545 -0.007355 0.051079 -0.339007 -0.581913 0.107978 0.566602 -0.221689 
next -0.034282 0.257173 -0.000459 -0.077150 0.100449 -0.266064 -0.332849 -0.242833 0.117489 -0.353940 0.100586 -0.144015 -0.253991 0.011146 0.053147 -0.316545 -0.587247 0.060640 0.574323 -0.235990 
test -0.053553 0.245877 -0.026777 -0.074763 0.075082 -0.286397 -0.330744 -0.246970 0.115862 -0.348761 0.081101 -0.110182 -0.290979 -0.017511 0.060861 -0.333340 -0.595209 0.075197 0.600552 -0.246389 
isnt -0.066622 0.271185 -0.005452 -0.080953 0.106842 -0.297376 -0.335111 -0.281594 0.101580 -0.297717 0.116390 -0.143861 -0.241359 0.008198 0.039945 -0.344971 -0.559122 0.085922 0.567026 -0.214295 
interested -0.028316 0.220517 -0.026546 -0.056049 0.115447 -0.261100 -0.336746 -0.262322 0.128979 -0.331047 0.109012 -0.125263 -0.269599 -0.032054 0.079165 -0.310534 -0.622183 0.110226 0.579184 -0.207426 
power -0.016711 0.286508 -0.025419 -0.082232 0.111488 -0.317929 -0.364862 -0.288374 0.122004 -0.406564 0.098873 -0.125899 -0.347332 -0.038935 0.119286 -0.365585 -0.724598 0.138283 0.735753 -0.260651 
low -0.023577 0.233727 -0.009954 -0.049481 0.072169 -0.280712 -0.304987 -0.259386 0.132649 -0.313700 0.088049 -0.112619 -0.257783 -0.014126 0.060386 -0.331424 -0.572164 0.082919 0.606022 -0.226807 
driving -0.032023 0.322777 0.009034 -0.072048 0.094264 -0.360703 -0.388881 -0.295558 0.142784 -0.425192 0.129948 -0.151784 -0.360513 -0.018176 0.061174 -0.391325 -0.762983 0.104953 0.718321 -0.289095 
seem -0.032324 0.220914 -0.008260 -0.060159 0.087528 -0.292041 -0.297301 -0.240738 0.115608 -0.315849 0.086265 -0.107569 -0.273930 -0.019958 0.053917 -0.346406 -0.592645 0.093368 0.544394 -0.221334 
times -0.056765 0.256633 -0.016640 -0.088444 0.099846 -0.291017 -0.337267 -0.264519 0.114975 -0.343531 0.105383 -0.129777 -0.299526 0.008242 0.055866 -0.329147 -0.594697 0.091447 0.580561 -0.237794 
dr -0.039451 0.220886 0.011161 -0.077838 0.059052 -0.280633 -0.292540 -0.205566 0.125009 -0.333891 0.077402 -0.136686 -0.303110 -0.003880 0.120887 -0.316136 -0.631995 0.114718 0.640664 -0.245875 
robert 0.000739 0.223552 0.008333 -0.093703 0.081100 -0.265719 -0.267767 -0.238618 0.123768 -0.359676 0.041711 -0.122877 -0.289955 -0.062992 0.148093 -0.283018 -0.651774 0.112990 0.677209 -0.222263 
type -0.046669 0.223306 0.006883 -0.073755 0.092552 -0.307729 -0.335996 -0.261904 0.091207 -0.322950 0.062906 -0.153844 -0.274012 0.003939 0.074444 -0.313927 -0.604964 0.101704 0.616945 -0.216381 
normal -0.032869 0.202093 0.014649 -0.032261 0.065091 -0.286939 -0.309189 -0.233978 0.112440 -0.315813 0.086515 -0.110569 -0.291731 -0.038493 0.083401 -0.332523 -0.584269 0.099771 0.587655 -0.225904 
e 0.006211 0.190296 -0.019541 -0.080461 0.071307 -0.262626 -0.298947 -0.187778 0.143048 -0.341777 0.043899 -0.149075 -0.296552 -0.047837 0.131620 -0.282147 -0.654956 0.128926 0.658041 -0.243787 
three -0.046777 0.240455 0.001525 -0.044403 0.076365 -0.263063 -0.344298 -0.283444 0.089940 -0.330259 0.105570 -0.149077 -0.272090 0.003239 0.054648 -0.343826 -0.613771 0.104983 0.591242 -0.237185 
important -0.055941 0.239079 -0.018016 -0.063989 0.092994 -0.290010 -0.335918 -0.245645 0.102804 -0.337629 0.085116 -0.141126 -0.260587 0.000604 0.084531 -0.325325 -0.601685 0.078109 0.616073 -0.227731 
him -0.041502 0.267911 -0.006742 -0.094333 0.085463 -0.297521 -0.306976 -0.267754 0.133033 -0.349448 0.081178 -0.137373 -0.235412 0.011622 0.040777 -0.339620 -0.632759 0.075257 0.571618 -0.245562 
c -0.014011 0.208600 -0.025792 -0.077473 0.076785 -0.280104 -0.309681 -0.213613 0.156976 -0.376222 0.030373 -0.154937 -0.333334 -0.037407 0.113491 -0.299823 -0.630739 0.123142 0.663572 -0.248295 
says -0.041373 0.239147 0.011515 -0.052032 0.083492 -0.293302 -0.330138 -0.260245 0.086243 -0.337075 0.063745 -0.125284 -0.306478 -0.041906 0.058578 -0.349426 -0.591846 0.112342 0.612735 -0.217443 
patient -0.022978 0.204485 -0.036847 -0.083642 0.091444 -0.253390 -0.306367 -0.224109 0.117352 -0.358260 0.096422 -0.132331 -0.283319 -0.005049 0.095253 -0.334214 -0.610301 0.094391 0.619137 -0.213143 
doing -0.046076 0.237627 -0.011285 -0.095124 0.088849 -0.264784 -0.304200 -0.286701 0.095475 -0.320575 0.095826 -0.109135 -0.276191 -0.023027 0.076045 -0.353725 -0.578669 0.105942 0.585027 -0.211833 
mark -0.019972 0.229747 0.016618 -0.079198 0.082273 -0.282139 -0.281894 -0.202038 0.161865 -0.356329 0.053051 -0.142927 -0.289416 -0.040251 0.128955 -0.260857 -0.598856 0.103188 0.623602 -0.209742 
weight -0.065103 0.204868 -0.018638 -0.068012 0.064811 -0.257620 -0.305077 -0.235375 0.104348 -0.326998 0.074509 -0.134443 -0.270609 -0.016636 0.094236 -0.332250 -0.616456 0.069642 0.617760 -0.228503 
symptoms -0.052513 0.240840 0.008081 -0.046913 0.118291 -0.251309 -0.321799 -0.273174 0.104561 -0.330819 0.086233 -0.119693 -0.261435 -0.005302 0.048095 -0.322059 -0.603919 0.088421 0.605744 -0.221394 
whether -0.061552 0.282058 -0.003213 -0.091881 0.109633 -0.251279 -0.348494 -0.278424 0.116886 -0.339471 0.089919 -0.135298 -0.251251 -0.028839 0.044414 -0.324081 -0.585817 0.099680 0.563157 -0.254027 
front -0.051676 0.312692 -0.000465 -0.104237 0.152513 -0.410840 -0.454931 -0.338692 0.179560 -0.458316 0.108340 -0.183565 -0.422176 -0.013224 0.103363 -0.470303 -0.854508 0.131261 0.872361 -0.344522 
w -0.008291 0.253661 -0.000570 -0.094404 0.094423 -0.311337 -0.330094 -0.262996 0.146195 -0.331476 0.070512 -0.121634 -0.317037 -0.036044 0.129545 -0.301560 -0.632213 0.104910 0.672256 -0.235705 
human -0.017495 0.225735 -0.005863 -0.085431 0.053760 -0.301011 -0.304811 -0.228305 0.117077 -0.344210 0.056206 -0.107228 -0.298157 -0.044743 0.095733 -0.338120 -0.635787 0.120798 0.648717 -0.214757 
person -0.033857 0.258902 -0.016200 -0.061575 0.118656 -0.271290 -0.303761 -0.245186 0.110785 -0.310576 0.078087 -0.136082 -0.265106 -0.009962 0.033191 -0.336643 -0.573740 0.085742 0.546106 -0.243652 
m 0.040953 0.228737 -0.018783 -0.068442 0.090293 -0.284351 -0.257883 -0.221528 0.143452 -0.318106 0.004616 -0.157302 -0.321881 -0.023175 0.167205 -0.253743 -0.658763 0.129204 0.707915 -0.196504 
possible -0.028167 0.233014 -0.018281 -0.064262 0.110324 -0.254775 -0.337098 -0.259740 0.123840 -0.319265 0.115288 -0.120026 -0.286248 -0.038517 0.079882 -0.359500 -0.596914 0.085275 0.578535 -0.221880 
per -0.031831 0.247748 -0.001871 -0.045566 0.065779 -0.290067 -0.330384 -0.247870 0.146395 -0.335866 0.078858 -0.138878 -0.319771 -0.022623 0.091528 -0.297364 -0.628108 0.065564 0.614896 -0.225361 
list -0.004730 0.252988 -0.023010 -0.105098 0.084723 -0.291890 -0.308771 -0.259775 0.110453 -0.315841 0.071039 -0.121813 -0.284264 -0.002375 0.068988 -0.333830 -0.621498 0.102189 0.625036 -0.244898 
center -0.019002 0.243893 0.012647 -0.081048 0.114333 -0.327700 -0.330881 -0.239908 0.182053 -0.364169 0.063505 -0.141354 -0.321146 -0.053471 0.121369 -0.327226 -0.687852 0.140197 0.732333 -0.286978 
once -0.040984 0.234554 -0.027644 -0.072832 0.105719 -0.266739 -0.338676 -0.225747 0.124553 -0.312860 0.089854 -0.105870 -0.257429 -0.017378 0.046080 -0.305285 -0.595277 0.079311 0.591893 -0.232973 
check -0.032128 0.263106 0.016639 -0.062176 0.113203 -0.295249 -0.336964 -0.236847 0.120865 -0.339261 0.071067 -0.094108 -0.271707 -0.047434 0.054199 -0.313209 -0.607316 0.084307 0.587967 -0.214582 
feel -0.043884 0.259721 0.007676 -0.063164 0.096577 -0.258623 -0.363421 -0.257512 0.105495 -0.317785 0.110178 -0.104597 -0.271013 -0.007126 0.061545 -0.347100 -0.603875 0.105921 0.544491 -0.234086 
end -0.045263 0.228759 -0.027393 -0.085730 0.087518 -0.279095 -0.331712 -0.237887 0.114973 -0.346272 0.082806 -0.112704 -0.293492 0.002620 0.055588 -0.348103 -0.626519 0.074875 0.618764 -0.245355 
risk -0.023909 0.228179 0.013304 -0.075852 0.088973 -0.269549 -0.342849 -0.227572 0.111626 -0.326223 0.100987 -0.112017 -0.268646 -0.048457 0.081045 -0.325256 -0.644247 0.105034 0.611565 -0.257308 
newsletter 0.041040 0.201736 0.025773 -0.065402 0.080209 -0.314400 -0.337811 -0.196245 0.182650 -0.427923 0.020415 -0.166790 -0.387636 -0.081269 0.202852 -0.333590 -0.816762 0.120583 0.827411 -0.284549 
control -0.055612 0.267714 -0.010561 -0.095541 0.092032 -0.312688 -0.348664 -0.257055 0.148356 -0.356515 0.099650 -0.121868 -0.288721 -0.032477 0.099886 -0.356655 -0.678228 0.104767 0.658965 -0.236414 
reason -0.031543 0.229228 0.013594 -0.062046 0.100188 -0.281222 -0.311649 -0.252406 0.119225 -0.345846 0.105773 -0.135992 -0.295057 -0.011612 0.048462 -0.333446 -0.580748 0.090825 0.603222 -0.257455 
common -0.056380 0.240319 -0.019963 -0.104236 0.112781 -0.300112 -0.338867 -0.269080 0.114969 -0.331079 0.086227 -0.145568 -0.289739 0.000650 0.054042 -0.322625 -0.644661 0.070645 0.611972 -0.216010 
mind -0.041979 0.260573 0.000511 -0.072165 0.080010 -0.256767 -0.331245 -0.236488 0.070221 -0.328881 0.097388 -0.105168 -0.265777 -0.036684 0.057080 -0.333602 -0.599262 0.075047 0.555720 -0.205411 
pretty -0.037896 0.247520 0.011305 -0.062752 0.091010 -0.294134 -0.317161 -0.267445 0.138553 -0.364306 0.080683 -0.131953 -0.265031 -0.034103 0.060036 -0.335931 -0.595901 0.087991 0.617149 -0.231485 
page 0.028785 0.242549 0.023796 -0.041393 0.056758 -0.328150 -0.355737 -0.227182 0.213276 -0.451293 0.062700 -0.134474 -0.373045 -0.039794 0.159222 -0.364430 -0.793122 0.143274 0.837949 -0.324617 
subject -0.036819 0.197557 -0.011066 -0.045479 0.081067 -0.285468 -0.293846 -0.237236 0.115674 -0.308586 0.039619 -0.134439 -0.290939 -0.007489 0.107678 -0.280579 -0.618170 0.095415 0.584218 -0.242875 
hard -0.043471 0.255983 0.003800 -0.072058 0.119631 -0.265553 -0.334766 -0.265857 0.125957 -0.332644 0.073767 -0.110286 -0.236979 0.001863 0.085811 -0.312023 -0.627653 0.094062 0.612459 -0.237404 
state -0.019316 0.252482 0.008276 -0.080530 0.089972 -0.277546 -0.330257 -0.251757 0.105505 -0.344306 0.107326 -0.160229 -0.280844 -0.050758 0.076642 -0.316742 -0.673204 0.095419 0.635608 -0.257743 
makes -0.037514 0.236510 -0.028730 -0.089993 0.119239 -0.275052 -0.331891 -0.250391 0.119141 -0.342848 0.083189 -0.115534 -0.291294 -0.022444 0.080651 -0.367927 -0.654906 0.071793 0.654591 -0.247902 
away -0.014311 0.257462 -0.012152 -0.056379 0.076029 -0.279355 -0.326107 -0.232908 0.129897 -0.383173 0.082564 -0.147959 -0.256976 0.007510 0.097898 -0.318983 -0.581312 0.059253 0.566230 -0.237052 
volume -0.009144 0.254813 -0.012485 -0.056005 0.097863 -0.332983 -0.371379 -0.236664 0.171277 -0.431154 0.083203 -0.146359 -0.364350 -0.070361 0.195979 -0.363691 -0.783811 0.156630 0.836129 -0.307856 
cases -0.008833 0.226411 0.007194 -0.050873 0.116341 -0.316931 -0.362242 -0.254054 0.132727 -0.355525 0.099860 -0.116283 -0.303188 -0.034975 0.071692 -0.321758 -0.623745 0.091023 0.658424 -0.257336 
states -0.035922 0.229116 -0.003149 -0.042346 0.076939 -0.276389 -0.303165 -0.218664 0.170015 -0.354856 0.100284 -0.146000 -0.316121 -0.024979 0.112017 -0.335936 -0.621774 0.118331 0.681115 -0.263806 
soon 0.152714 0.244817 -0.018296 -0.038304 0.058856 -0.353049 -0.207598 -0.189491 0.149061 -0.299548 -0.062680 -0.121903 -0.351336 -0.075285 0.200970 -0.240153 -0.788162 0.221714 0.820867 -0.172170 
among -0.019654 0.209738 -0.005055 -0.054232 0.088246 -0.299237 -0.306635 -0.237942 0.149845 -0.333829 0.077764 -0.116091 -0.305863 -0.033706 0.112033 -0.340818 -0.658436 0.108001 0.641128 -0.243223 
opinions -0.037193 0.219643 -0.003201 -0.096305 0.107818 -0.272789 -0.311462 -0.251285 0.108143 -0.378127 0.062121 -0.116908 -0.303494 -0.030950 0.077656 -0.332314 -0.639432 0.083924 0.649004 -0.242405 
until -0.027946 0.242679 -0.005024 -0.066628 0.106584 -0.278222 -0.305000 -0.248876 0.130736 -0.348729 0.117230 -0.132917 -0.246924 -0.029525 0.071194 -0.311781 -0.612700 0.072968 0.562250 -0.226721 
manual -0.079475 0.308506 -0.031500 -0.062210 0.122019 -0.319946 -0.381806 -0.295975 0.102517 -0.417932 0.095336 -0.190480 -0.368207 -0.034556 0.079459 -0.428969 -0.732601 0.098480 0.702880 -0.269944 
thought -0.051013 0.250090 -0.029784 -0.065486 0.109736 -0.267899 -0.307057 -0.264561 0.097429 -0.341026 0.082192 -0.147022 -0.264842 0.006073 0.085614 -0.332577 -0.591898 0.115479 0.601889 -0.230780 
idea -0.026422 0.223974 0.010856 -0.082761 0.095329 -0.257704 -0.339735 -0.240003 0.112344 -0.341219 0.092121 -0.124554 -0.241152 -0.004285 0.058570 -0.342854 -0.590124 0.067634 0.583457 -0.240342 
book -0.017095 0.238482 -0.025119 -0.052261 0.098605 -0.291053 -0.314637 -0.274434 0.112941 -0.339999 0.058585 -0.144412 -0.302912 -0.020965 0.094844 -0.323877 -0.600727 0.112673 0.605973 -0.248555 
l -0.028660 0.227916 0.006360 -0.085538 0.097440 -0.268425 -0.307712 -0.248632 0.130645 -0.369719 0.064548 -0.164058 -0.276061 -0.022470 0.079961 -0.327821 -0.618946 0.106329 0.643709 -0.252432 
banks 0.154995 0.225741 0.005577 -0.032522 0.019184 -0.355510 -0.204167 -0.204246 0.174023 -0.336149 -0.131394 -0.144628 -0.413049 -0.100122 0.262762 -0.244238 -0.828687 0.211850 0.903551 -0.230355 
able -0.041017 0.258738 -0.012298 -0.068589 0.104305 -0.260393 -0.331721 -0.242399 0.081449 -0.333673 0.115010 -0.151315 -0.253526 -0.031610 0.039132 -0.346931 -0.580093 0.074803 0.598355 -0.221386 
auto -0.014959 0.348344 -0.028765 -0.120143 0.106857 -0.421952 -0.428648 -0.326539 0.139005 -0.485923 0.137158 -0.214512 -0.408646 -0.017001 0.143414 -0.434250 -0.908289 0.129081 0.884895 -0.305356 
money -0.031877 0.226831 0.014661 -0.076316 0.090006 -0.273898 -0.324984 -0.254133 0.109738 -0.356891 0.104748 -0.101214 -0.260578 -0.001658 0.058237 -0.325604 -0.605454 0.094122 0.576557 -0.219337 
send -0.035143 0.259244 -0.009802 -0.086712 0.110890 -0.237264 -0.319406 -0.215526 0.114773 -0.325502 0.071656 -0.111180 -0.237898 -0.051014 0.107861 -0.307537 -0.603515 0.116542 0.609066 -0.253354 
results -0.030172 0.263385 -0.011742 -0.051100 0.103555 -0.283553 -0.326601 -0.236153 0.127951 -0.327620 0.078954 -0.111096 -0.291089 -0.015399 0.051797 -0.343430 -0.586886 0.096023 0.609711 -0.232538 
public -0.034347 0.236261 -0.028337 -0.033915 0.086806 -0.263151 -0.292355 -0.213717 0.138467 -0.352270 0.058591 -0.119575 -0.311258 -0.032286 0.106868 -0.306895 -0.652130 0.107256 0.664988 -0.223399 
based -0.057536 0.206517 -0.008684 -0.046238 0.098491 -0.266007 -0.299822 -0.255778 0.137553 -0.351381 0.086146 -0.127971 -0.282086 -0.015579 0.097192 -0.314994 -0.576293 0.107965 0.623219 -0.234564 
went -0.046276 0.260496 0.002303 -0.074764 0.073975 -0.244905 -0.300399 -0.275304 0.095754 -0.340912 0.094879 -0.118111 -0.280582 0.011838 0.045187 -0.328805 -0.567771 0.075554 0.590207 -0.219339 
drugs -0.052856 0.253103 0.019287 -0.067614 0.076981 -0.254409 -0.344508 -0.242141 0.109329 -0.332528 0.094450 -0.113894 -0.297063 -0.002097 0.062351 -0.315292 -0.598279 0.102039 0.633957 -0.237260 
wife -0.058419 0.274889 -0.028672 -0.093879 0.117405 -0.259941 -0.291434 -0.233972 0.086059 -0.317339 0.109963 -0.142988 -0.279477 0.001886 0.075558 -0.317650 -0.568478 0.089377 0.564747 -0.239440 
scientific -0.012449 0.229809 -0.020051 -0.054060 0.099192 -0.284722 -0.318726 -0.235073 0.108603 -0.347775 0.093567 -0.132546 -0.269415 -0.007803 0.069288 -0.338432 -0.636099 0.097788 0.611075 -0.251778 
blood -0.014652 0.241898 -0.034366 -0.078772 0.081298 -0.254492 -0.295840 -0.245562 0.123538 -0.314670 0.055936 -0.133385 -0.277079 -0.040728 0.066620 -0.321492 -0.608563 0.106046 0.615651 -0.198855 
questions -0.020806 0.239201 0.014213 -0.060903 0.119201 -0.249822 -0.347398 -0.230471 0.093305 -0.352920 0.103736 -0.120526 -0.267939 -0.029360 0.067789 -0.297764 -0.609190 0.110534 0.586460 -0.255974 
area -0.049475 0.224012 0.012118 -0.052490 0.106014 -0.276064 -0.329622 -0.251411 0.114880 -0.317382 0.095125 -0.135536 -0.282836 -0.026897 0.033983 -0.341950 -0.589962 0.112148 0.560354 -0.211212 
place -0.054321 0.246055 -0.013976 -0.051031 0.060658 -0.284616 -0.302218 -0.227703 0.129106 -0.310738 0.063642 -0.138517 -0.283507 -0.043880 0.092775 -0.309369 -0.584693 0.103720 0.586480 -0.241572 
women -0.024370 0.231127 -0.024678 -0.070059 0.087808 -0.279770 -0.319863 -0.223833 0.132722 -0.335941 0.061870 -0.142270 -0.274630 -0.014236 0.098385 -0.325810 -0.582063 0.097097 0.596451 -0.252490 
local -0.023065 0.260316 -0.008936 -0.080000 0.085537 -0.292878 -0.300042 -0.264289 0.097951 -0.335988 0.063817 -0.144347 -0.285631 -0.033537 0.057115 -0.303989 -0.624406 0.115899 0.621432 -0.227830 
remember -0.066748 0.250339 -0.001819 -0.087667 0.093144 -0.269938 -0.335614 -0.270962 0.083711 -0.346406 0.092090 -0.134324 -0.245251 -0.030957 0.039365 -0.315736 -0.596407 0.109190 0.605101 -0.205986 
clutch -0.052384 0.312287 -0.022851 -0.054898 0.098597 -0.364127 -0.453870 -0.327999 0.189807 -0.449064 0.099241 -0.190665 -0.397990 -0.018045 0.138000 -0.444774 -0.823700 0.127131 0.809295 -0.298397 
above -0.044953 0.257318 -0.018585 -0.086658 0.122049 -0.258021 -0.303869 -0.281077 0.127635 -0.359779 0.072531 -0.154468 -0.267167 -0.048714 0.074826 -0.356523 -0.613870 0.072131 0.572336 -0.239474 
known -0.053796 0.225953 -0.022971 -0.066052 0.123192 -0.292695 -0.319155 -0.239721 0.101496 -0.317966 0.114583 -0.143091 -0.279404 -0.018045 0.040408 -0.336599 -0.600566 0.076158 0.613264 -0.233198 
cost -0.042977 0.247952 -0.034558 -0.071206 0.093891 -0.270963 -0.327938 -0.277348 0.131353 -0.358674 0.119271 -0.137499 -0.264086 -0.042055 0.092288 -0.353281 -0.623621 0.085276 0.602367 -0.246829 
trying -0.028901 0.230066 -0.032399 -0.095048 0.078465 -0.285487 -0.302216 -0.259945 0.081754 -0.339585 0.116820 -0.120655 -0.247496 -0.039985 0.023911 -0.315979 -0.584278 0.095426 0.583905 -0.220448 
almost -0.046772 0.258796 0.001634 -0.085804 0.099210 -0.295163 -0.345261 -0.247571 0.116296 -0.312889 0.128559 -0.120012 -0.248786 -0.031332 0.067379 -0.320430 -0.590876 0.072453 0.571117 -0.244361 
road -0.028000 0.288759 -0.019787 -0.049643 0.128292 -0.356139 -0.414028 -0.317247 0.140188 -0.411675 0.085679 -0.154615 -0.373341 -0.046850 0.105520 -0.389393 -0.750398 0.120231 0.741874 -0.299439 
stuff -0.035135 0.266327 -0.010565 -0.079125 0.089731 -0.246119 -0.330621 -0.222211 0.115779 -0.320109 0.090345 -0.151283 -0.269058 -0.010114 0.041786 -0.338446 -0.596067 0.066491 0.553030 -0.193915 
top -0.059228 0.283859 -0.034219 -0.095443 0.100236 -0.299748 -0.342335 -0.287112 0.128323 -0.384567 0.113777 -0.143632 -0.291570 -0.004464 0.046105 -0.383808 -0.666515 0.126822 0.646774 -0.254054 
writesi 0.025501 0.203165 0.004855 -0.062423 0.093669 -0.294290 -0.270093 -0.191230 0.112808 -0.346204 0.023516 -0.146205 -0.296335 -0.045254 0.137025 -0.301188 -0.625412 0.142220 0.650213 -0.234480 
hand -0.062620 0.244981 -0.017888 -0.059362 0.091329 -0.272093 -0.330241 -0.282205 0.086975 -0.306655 0.107725 -0.136690 -0.256683 -0.010177 0.072021 -0.362869 -0.585331 0.086661 0.572421 -0.258109 
friend -0.011376 0.233492 0.002599 -0.066072 0.076237 -0.288354 -0.307517 -0.208909 0.124900 -0.342387 0.057834 -0.145066 -0.259235 -0.028444 0.102732 -0.281637 -0.591908 0.067831 0.558705 -0.210727 
example -0.050977 0.246081 -0.023305 -0.057533 0.082379 -0.267702 -0.343434 -0.270189 0.100383 -0.351708 0.071045 -0.117722 -0.254815 -0.006050 0.053779 -0.339215 -0.576876 0.108756 0.566632 -0.221377 
foods -0.052849 0.218249 0.003671 -0.086846 0.102678 -0.265712 -0.292201 -0.237812 0.137454 -0.346696 0.070398 -0.142695 -0.312695 -0.037399 0.089145 -0.295989 -0.595677 0.089517 0.601886 -0.218005 
bought -0.066665 0.286977 -0.043150 -0.092271 0.134889 -0.327055 -0.367985 -0.309107 0.114213 -0.402216 0.108931 -0.140346 -0.323421 -0.021175 0.080909 -0.380437 -0.700217 0.095732 0.712254 -0.274196 
works -0.031138 0.260674 -0.023548 -0.079537 0.100454 -0.271138 -0.309238 -0.255276 0.097185 -0.324664 0.104091 -0.103911 -0.279804 0.001817 0.100755 -0.325527 -0.608537 0.098837 0.596105 -0.207338 
mph -0.012185 0.330810 -0.023703 -0.102909 0.132215 -0.349154 -0.450676 -0.319242 0.187535 -0.469218 0.131767 -0.146050 -0.358954 -0.024336 0.089950 -0.403191 -0.823472 0.168080 0.805775 -0.300593 
early -0.051876 0.265513 -0.015759 -0.081971 0.101696 -0.299943 -0.321796 -0.252704 0.101836 -0.343242 0.057985 -0.117771 -0.267841 -0.007949 0.101744 -0.307685 -0.625984 0.103141 0.603478 -0.259766 
couple -0.062938 0.241264 -0.034913 -0.093215 0.079557 -0.286852 -0.333470 -0.248945 0.074569 -0.315858 0.114059 -0.123993 -0.257212 -0.008295 0.049224 -0.307403 -0.597393 0.073482 0.545484 -0.214251 
ask -0.052480 0.269617 0.016680 -0.096307 0.119109 -0.252173 -0.283272 -0.231928 0.103817 -0.338057 0.103598 -0.134852 -0.271863 0.004189 0.060411 -0.314861 -0.608298 0.074429 0.581308 -0.247134 
radar -0.053252 0.300376 -0.031863 -0.092182 0.100180 -0.348316 -0.427187 -0.341260 0.170224 -0.445920 0.107495 -0.176118 -0.396124 -0.003485 0.133815 -0.414371 -0.866344 0.164400 0.897009 -0.308452 
current -0.037356 0.263604 -0.013656 -0.036789 0.102748 -0.285060 -0.362703 -0.243346 0.102126 -0.357822 0.106273 -0.145214 -0.288732 -0.040661 0.062814 -0.364963 -0.617313 0.077813 0.599338 -0.220627 
weeks -0.066575 0.246966 -0.030927 -0.091032 0.109473 -0.304205 -0.327221 -0.283608 0.083616 -0.333822 0.099087 -0.151134 -0.269032 0.015627 0.053466 -0.326992 -0.584122 0.084937 0.572185 -0.227661 
mustang -0.068526 0.352225 -0.036491 -0.080031 0.096936 -0.399901 -0.423960 -0.311146 0.192397 -0.498817 0.096073 -0.161510 -0.375952 -0.038127 0.110843 -0.443012 -0.871309 0.170366 0.849896 -0.321540 
against -0.035079 0.237908 -0.015425 -0.068787 0.092777 -0.260268 -0.335228 -0.250239 0.122319 -0.340292 0.098389 -0.103952 -0.295805 -0.020344 0.071297 -0.308348 -0.637431 0.107285 0.637406 -0.229291 
eat -0.038723 0.258984 -0.018311 -0.084673 0.095302 -0.281333 -0.307190 -0.237928 0.113379 -0.306297 0.111047 -0.108983 -0.290842 -0.012885 0.046757 -0.305889 -0.588816 0.069468 0.569152 -0.216074 
although -0.041613 0.220122 -0.011421 -0.059062 0.080664 -0.265522 -0.338205 -0.258737 0.122581 -0.310844 0.106160 -0.128248 -0.258685 0.003452 0.035609 -0.345713 -0.614450 0.076697 0.599646 -0.242096 
others -0.044306 0.238754 0.021383 -0.053220 0.099687 -0.284069 -0.326799 -0.266137 0.094309 -0.347300 0.117512 -0.122231 -0.265084 -0.028864 0.024502 -0.319141 -0.616060 0.108394 0.556060 -0.242559 
data -0.044801 0.247720 0.005876 -0.081831 0.082226 -0.307807 -0.293895 -0.257138 0.118093 -0.363927 0.056934 -0.108420 -0.305166 -0.032438 0.098074 -0.321784 -0.635825 0.113964 0.634062 -0.267790 
reported -0.045415 0.265849 -0.039576 -0.078001 0.110966 -0.301405 -0.316270 -0.264387 0.156852 -0.340774 0.090693 -0.128529 -0.294643 -0.038067 0.065161 -0.319522 -0.628872 0.108115 0.627229 -0.230340 
bit -0.036313 0.242885 -0.030241 -0.082323 0.109553 -0.279277 -0.372073 -0.276927 0.075195 -0.303877 0.134839 -0.125794 -0.236120 -0.003391 0.028309 -0.338643 -0.585895 0.102010 0.558937 -0.205036 
model -0.038997 0.242282 -0.004120 -0.071363 0.096286 -0.295868 -0.349690 -0.261664 0.112995 -0.344702 0.100413 -0.127173 -0.299402 -0.026321 0.050688 -0.349519 -0.693845 0.123746 0.655836 -0.244938 
children -0.035095 0.231221 -0.026365 -0.055325 0.082959 -0.265506 -0.339722 -0.256045 0.143696 -0.337641 0.105093 -0.116804 -0.299549 -0.048911 0.073084 -0.345291 -0.634674 0.071039 0.637492 -0.247771 
wont -0.036147 0.279497 -0.003204 -0.059160 0.103297 -0.275181 -0.354843 -0.266643 0.122300 -0.336688 0.120865 -0.134283 -0.273083 -0.037905 0.058693 -0.370438 -0.619466 0.091995 0.638019 -0.238705 
honda -0.047950 0.321770 -0.014097 -0.069654 0.152173 -0.404327 -0.435714 -0.308028 0.189887 -0.454143 0.081779 -0.171165 -0.408706 -0.035476 0.120331 -0.444903 -0.834869 0.142876 0.865086 -0.332727 
true -0.065436 0.240416 -0.027784 -0.076680 0.105296 -0.285964 -0.367462 -0.279023 0.118080 -0.313216 0.126238 -0.104311 -0.280418 0.002959 0.063413 -0.370445 -0.601654 0.090580 0.599449 -0.235658 
gebcspittedu 0.188418 0.208557 0.020101 -0.069538 0.049388 -0.318353 -0.179747 -0.197151 0.157356 -0.297634 -0.153852 -0.171489 -0.372338 -0.053866 0.298906 -0.189046 -0.753909 0.235429 0.883771 -0.170180 
similar -0.038929 0.250647 -0.004711 -0.071398 0.093373 -0.275220 -0.323770 -0.251126 0.105670 -0.334561 0.070842 -0.143312 -0.286235 -0.007447 0.076466 -0.323902 -0.587444 0.105068 0.608423 -0.218897 
brake -0.078796 0.363701 0.003464 -0.064140 0.125388 -0.400702 -0.467906 -0.348589 0.171374 -0.495892 0.120168 -0.157807 -0.416020 -0.058700 0.103713 -0.477113 -0.897730 0.149175 0.875516 -0.360058 
life -0.009533 0.264024 0.011233 -0.068470 0.077615 -0.299698 -0.328819 -0.235948 0.137214 -0.335649 0.087690 -0.116876 -0.297266 -0.019871 0.082802 -0.350016 -0.617127 0.085469 0.607978 -0.215515 
kidney -0.019594 0.211276 0.006076 -0.064347 0.052675 -0.272579 -0.277707 -0.182604 0.137310 -0.307392 0.019665 -0.096467 -0.294079 -0.026635 0.110197 -0.292728 -0.608851 0.102172 0.636885 -0.241815 
call -0.038627 0.241782 -0.006541 -0.080772 0.094651 -0.263161 -0.351071 -0.262709 0.132393 -0.329479 0.081477 -0.114601 -0.292469 -0.026190 0.088721 -0.337987 -0.578719 0.098412 0.588954 -0.242268 
syndrome -0.017012 0.240273 -0.016854 -0.080567 0.089748 -0.297780 -0.316306 -0.207660 0.128988 -0.375313 0.061115 -0.110551 -0.327277 -0.020961 0.124939 -0.325909 -0.625284 0.095976 0.634839 -0.253888 
wrong -0.044213 0.254187 -0.031232 -0.090294 0.109611 -0.241547 -0.314662 -0.257173 0.111281 -0.321717 0.084438 -0.104309 -0.228574 -0.028186 0.023262 -0.310444 -0.562357 0.097200 0.546817 -0.193399 
name -0.013469 0.269868 -0.015618 -0.077139 0.117036 -0.303900 -0.310490 -0.253715 0.099252 -0.358317 0.095018 -0.149885 -0.295869 -0.040268 0.064554 -0.342473 -0.608224 0.090876 0.594520 -0.237539 
school -0.009779 0.244064 -0.011364 -0.085798 0.084006 -0.285628 -0.298493 -0.234019 0.097361 -0.312922 0.073972 -0.101688 -0.266618 -0.030674 0.088733 -0.280068 -0.580431 0.083546 0.612315 -0.202108 
nice -0.040122 0.292630 -0.028827 -0.052834 0.103003 -0.303217 -0.384980 -0.269788 0.108551 -0.371044 0.115999 -0.171832 -0.347101 -0.018778 0.079154 -0.378277 -0.747562 0.131608 0.728814 -0.262259 
week -0.060820 0.252016 0.006011 -0.062688 0.112519 -0.301130 -0.332703 -0.264497 0.125603 -0.347091 0.093265 -0.136883 -0.296448 -0.005466 0.076448 -0.335024 -0.584101 0.090070 0.575331 -0.248431 
mean -0.052081 0.231414 0.014299 -0.089190 0.091314 -0.248948 -0.334384 -0.229907 0.100973 -0.333582 0.053987 -0.138487 -0.273824 -0.014112 0.088901 -0.323698 -0.607150 0.084223 0.612377 -0.225935 
let -0.015026 0.234827 0.009750 -0.074698 0.102411 -0.258102 -0.334585 -0.250286 0.090252 -0.297297 0.078138 -0.119455 -0.243759 0.008559 0.043942 -0.317290 -0.597157 0.080660 0.539710 -0.196237 
transmission -0.067647 0.277668 -0.020766 -0.072927 0.101179 -0.323893 -0.377601 -0.290892 0.107526 -0.373563 0.119758 -0.166992 -0.307972 -0.045178 0.063393 -0.392740 -0.689263 0.110370 0.676531 -0.289641 
systems -0.025013 0.201094 -0.018041 -0.083987 0.097355 -0.288660 -0.322862 -0.193782 0.164095 -0.367629 0.044308 -0.103915 -0.321835 -0.058039 0.090725 -0.334335 -0.620152 0.119726 0.671980 -0.230717 
thanks -0.020013 0.224512 -0.018442 -0.090137 0.082182 -0.284970 -0.317388 -0.258708 0.083446 -0.317212 0.087736 -0.124146 -0.263658 -0.027667 0.058923 -0.320756 -0.599495 0.093539 0.585475 -0.233081 
given -0.033605 0.258646 -0.013787 -0.090659 0.098795 -0.293051 -0.321649 -0.240272 0.116859 -0.341186 0.103468 -0.137973 -0.298225 -0.021490 0.038721 -0.309470 -0.600355 0.105729 0.603596 -0.234819 
diseases -0.024248 0.222756 0.019149 -0.076894 0.097314 -0.304137 -0.294736 -0.210163 0.166739 -0.339197 0.063728 -0.126860 -0.338651 -0.027699 0.142228 -0.326797 -0.674794 0.088004 0.684734 -0.240122 
chronic -0.013783 0.203361 -0.007548 -0.038133 0.047255 -0.237543 -0.285577 -0.197371 0.142293 -0.341212 0.066277 -0.133766 -0.264508 -0.022434 0.100446 -0.312217 -0.600287 0.093367 0.585487 -0.234142 
pay -0.011100 0.262457 -0.023830 -0.086583 0.118333 -0.275639 -0.357943 -0.238466 0.124067 -0.331458 0.080600 -0.142122 -0.305626 -0.034074 0.080129 -0.329553 -0.654898 0.100560 0.654027 -0.258779 
toyota -0.056834 0.334579 -0.020880 -0.092725 0.144876 -0.414186 -0.456099 -0.341857 0.179144 -0.499128 0.134628 -0.187985 -0.413470 -0.005857 0.126309 -0.472202 -0.907780 0.118863 0.870570 -0.303752 
computer -0.005783 0.233709 0.008086 -0.043451 0.073958 -0.267622 -0.306778 -0.248049 0.101464 -0.334239 0.081002 -0.106698 -0.274201 -0.051946 0.115199 -0.327471 -0.630220 0.073398 0.648224 -0.225589 
american -0.012573 0.258553 0.012793 -0.057941 0.089912 -0.310905 -0.318992 -0.248738 0.146222 -0.352059 0.075450 -0.121769 -0.306235 -0.026370 0.075892 -0.325502 -0.666220 0.105576 0.639205 -0.229913 
certainly -0.050434 0.256597 -0.019751 -0.074416 0.072348 -0.287707 -0.349321 -0.255733 0.126505 -0.340816 0.093562 -0.102930 -0.274109 -0.032366 0.052263 -0.330003 -0.582165 0.094222 0.564338 -0.207714 
second -0.059543 0.256101 0.010254 -0.059206 0.117289 -0.264919 -0.324494 -0.237384 0.083575 -0.314277 0.076988 -0.113129 -0.257017 -0.004987 0.076135 -0.323236 -0.610236 0.088455 0.589449 -0.240962 
large -0.040398 0.215221 -0.030792 -0.041702 0.073593 -0.274251 -0.343469 -0.232720 0.111520 -0.304950 0.097242 -0.131021 -0.274322 -0.009486 0.030070 -0.345492 -0.583647 0.113391 0.592872 -0.251837 
prevent -0.018617 0.218080 -0.021599 -0.073795 0.072822 -0.262681 -0.333656 -0.249904 0.114396 -0.347321 0.091514 -0.139757 -0.294269 -0.012949 0.090805 -0.312440 -0.608975 0.079188 0.588500 -0.218902 
program 0.002720 0.230211 -0.009841 -0.038337 0.072909 -0.268022 -0.281393 -0.245534 0.111072 -0.370732 0.072767 -0.133816 -0.275538 -0.034042 0.104899 -0.307455 -0.611090 0.117599 0.648035 -0.218235 
already -0.053348 0.223575 0.013829 -0.059919 0.120467 -0.287252 -0.325987 -0.248169 0.090812 -0.335874 0.114377 -0.108433 -0.268139 -0.029837 0.045760 -0.323067 -0.614453 0.070600 0.638668 -0.246407 
yet -0.028446 0.226684 -0.010004 -0.059336 0.096712 -0.270088 -0.297218 -0.224811 0.112272 -0.337382 0.109477 -0.105985 -0.301804 -0.023882 0.046661 -0.342080 -0.587823 0.063863 0.583285 -0.213397 
recently -0.020070 0.224338 0.008400 -0.063252 0.085827 -0.267877 -0.312435 -0.225787 0.093513 -0.304637 0.088376 -0.137392 -0.296147 -0.007429 0.080576 -0.316910 -0.595640 0.108488 0.583768 -0.212027 
ones -0.046588 0.232437 0.022807 -0.080524 0.105857 -0.300313 -0.323444 -0.278996 0.121470 -0.343075 0.083170 -0.137962 -0.279630 -0.039179 0.081875 -0.336226 -0.640117 0.073860 0.633097 -0.254047 
understand -0.053057 0.227157 -0.016448 -0.079740 0.090518 -0.283119 -0.337722 -0.243366 0.074664 -0.318308 0.079566 -0.097801 -0.243087 -0.038058 0.059608 -0.345109 -0.567008 0.101776 0.588903 -0.217159 
air -0.035829 0.242701 -0.038597 -0.100912 0.087226 -0.295784 -0.347955 -0.266398 0.111450 -0.332523 0.072618 -0.144169 -0.303005 -0.043349 0.099448 -0.314202 -0.612763 0.117179 0.636017 -0.217643 
internet -0.019504 0.233155 0.000359 -0.062111 0.091894 -0.291461 -0.276364 -0.202623 0.136432 -0.345795 0.062445 -0.143430 -0.346156 -0.054549 0.131106 -0.292727 -0.635709 0.090536 0.667766 -0.242975 
especially -0.047125 0.236213 -0.006679 -0.081367 0.102047 -0.267910 -0.291300 -0.260925 0.112511 -0.325000 0.065984 -0.132552 -0.269777 -0.017272 0.075750 -0.313793 -0.535153 0.066721 0.549804 -0.224119 
came -0.064894 0.252198 0.016602 -0.077893 0.090289 -0.263927 -0.289042 -0.261056 0.113744 -0.304136 0.070880 -0.139233 -0.237294 -0.016369 0.073785 -0.315790 -0.590424 0.100713 0.582897 -0.208885 
previous -0.015944 0.283691 -0.024242 -0.072173 0.118978 -0.316884 -0.328744 -0.287813 0.137854 -0.358345 0.064681 -0.132480 -0.343491 -0.004846 0.105268 -0.334717 -0.707543 0.109849 0.714569 -0.289534 
major -0.063954 0.254949 -0.011765 -0.050156 0.108735 -0.251099 -0.332246 -0.242909 0.136223 -0.310479 0.104506 -0.096937 -0.303338 0.001457 0.049561 -0.334744 -0.603661 0.106826 0.597182 -0.215332 
michael -0.003743 0.223384 -0.004600 -0.062858 0.062200 -0.272125 -0.292898 -0.193651 0.144871 -0.345681 0.025988 -0.138337 -0.331756 -0.061560 0.170807 -0.264999 -0.631369 0.115438 0.694532 -0.211306 
md -0.004230 0.225972 -0.006772 -0.072180 0.075983 -0.304992 -0.333602 -0.229615 0.136117 -0.354740 0.057861 -0.122725 -0.297513 -0.039161 0.141473 -0.307278 -0.639166 0.113087 0.662344 -0.262298 
hear -0.038706 0.227063 -0.008313 -0.060511 0.102484 -0.295607 -0.306822 -0.250293 0.118553 -0.361206 0.090523 -0.116150 -0.291392 -0.042113 0.092412 -0.338426 -0.618114 0.080371 0.627020 -0.261475 
home -0.054569 0.249203 -0.001202 -0.085715 0.064357 -0.273762 -0.287434 -0.212125 0.136702 -0.314966 0.075234 -0.142500 -0.280622 -0.014718 0.102058 -0.335536 -0.592837 0.066441 0.591829 -0.227568 
guess -0.029499 0.233917 0.004791 -0.065836 0.104277 -0.266117 -0.329655 -0.272140 0.116825 -0.319498 0.115414 -0.118958 -0.279944 0.000384 0.023765 -0.325531 -0.593128 0.079502 0.608243 -0.260898 
saw -0.041754 0.242619 -0.039274 -0.099020 0.089947 -0.270001 -0.323698 -0.250851 0.109860 -0.317078 0.066246 -0.127796 -0.276065 -0.025881 0.079036 -0.347806 -0.582312 0.119250 0.554128 -0.221843 
effective -0.010702 0.233366 -0.026200 -0.059611 0.108743 -0.292789 -0.331902 -0.246222 0.140545 -0.331882 0.094019 -0.106385 -0.272135 -0.038674 0.079055 -0.342811 -0.597773 0.113974 0.629838 -0.258280 
safety -0.048527 0.216905 0.007206 -0.065453 0.067484 -0.285683 -0.325340 -0.236837 0.111240 -0.384989 0.074970 -0.108634 -0.313139 -0.045321 0.077211 -0.314540 -0.610740 0.082433 0.648378 -0.216917 
tires -0.013584 0.304402 0.003695 -0.112439 0.116074 -0.364589 -0.412366 -0.309834 0.160779 -0.404573 0.101348 -0.138204 -0.392002 -0.029114 0.120439 -0.435306 -0.761997 0.150675 0.762217 -0.288110 
mine -0.048269 0.249942 0.010943 -0.055008 0.085192 -0.278167 -0.335744 -0.229891 0.104331 -0.359262 0.050635 -0.120160 -0.297654 -0.026113 0.069624 -0.324885 -0.641297 0.117314 0.596844 -0.211990 
keyboard -0.062203 0.319830 -0.002164 -0.054624 0.090986 -0.356982 -0.388734 -0.325439 0.172261 -0.462729 0.087543 -0.200599 -0.411345 -0.032816 0.138117 -0.424909 -0.845246 0.133570 0.840632 -0.347739 
surgery -0.024096 0.211561 0.013899 -0.074650 0.055725 -0.248603 -0.275571 -0.218285 0.143403 -0.337504 0.076665 -0.108690 -0.279121 -0.027300 0.074234 -0.326653 -0.610192 0.111858 0.611781 -0.210104 
jim 0.008639 0.244143 -0.027727 -0.053989 0.088315 -0.329788 -0.328674 -0.240879 0.159307 -0.374605 0.013185 -0.181093 -0.364775 -0.052736 0.127423 -0.321567 -0.730948 0.152801 0.746704 -0.263211 
deal -0.014781 0.256247 -0.011715 -0.087738 0.099967 -0.295189 -0.328992 -0.281808 0.139188 -0.357509 0.097506 -0.102702 -0.262167 -0.008034 0.079975 -0.366093 -0.637398 0.075542 0.641681 -0.225868 
set -0.058740 0.270787 -0.033113 -0.049193 0.085569 -0.287707 -0.317585 -0.270629 0.106180 -0.367974 0.078447 -0.137615 -0.267120 -0.018338 0.064438 -0.340958 -0.628895 0.113581 0.639211 -0.232242 
due -0.044725 0.223381 0.000421 -0.085164 0.079872 -0.285549 -0.319051 -0.257200 0.125572 -0.312131 0.081464 -0.141458 -0.256609 -0.028189 0.070561 -0.325826 -0.600138 0.107265 0.587709 -0.227851 
within -0.021921 0.255017 -0.025634 -0.068008 0.117187 -0.265090 -0.323987 -0.233918 0.085655 -0.348670 0.098059 -0.108285 -0.296561 -0.017180 0.048342 -0.349925 -0.593749 0.115821 0.609536 -0.236711 
issue -0.034365 0.256530 0.011573 -0.093428 0.070120 -0.298392 -0.337043 -0.235399 0.133351 -0.311210 0.086555 -0.149731 -0.287138 -0.033204 0.056097 -0.302306 -0.619428 0.085292 0.569542 -0.236575 
havent -0.021363 0.257783 -0.005141 -0.070431 0.077690 -0.301613 -0.321409 -0.232496 0.085464 -0.353484 0.063520 -0.135634 -0.282377 -0.023255 0.077382 -0.306242 -0.601664 0.118866 0.620594 -0.206066 
following -0.016127 0.254141 -0.004326 -0.066297 0.073866 -0.275082 -0.322258 -0.252822 0.127509 -0.337547 0.061757 -0.149027 -0.267772 -0.014387 0.076782 -0.333922 -0.612823 0.077735 0.596770 -0.246651 
gets -0.032059 0.228377 -0.031719 -0.075464 0.102757 -0.287131 -0.322269 -0.250347 0.113054 -0.338933 0.102357 -0.100458 -0.296208 0.000296 0.054558 -0.335055 -0.583106 0.116326 0.617541 -0.240270 
four -0.026664 0.241494 0.015360 -0.048127 0.078457 -0.294757 -0.315239 -0.223133 0.092314 -0.350161 0.103695 -0.123645 -0.262404 -0.006466 0.076245 -0.323109 -0.596351 0.108605 0.613518 -0.260744 
wouldnt -0.063554 0.226999 0.006866 -0.095809 0.117659 -0.283487 -0.335970 -0.236586 0.081864 -0.321058 0.089566 -0.107747 -0.258732 -0.040145 0.088115 -0.325537 -0.595096 0.098729 0.578312 -0.215558 
light -0.055299 0.240570 -0.013590 -0.048997 0.090695 -0.270465 -0.338379 -0.272900 0.132412 -0.356590 0.094671 -0.149711 -0.267600 -0.009088 0.052647 -0.329755 -0.628259 0.091335 0.646038 -0.249126 
wrote -0.032444 0.250040 -0.017263 -0.075641 0.070923 -0.294910 -0.288138 -0.242397 0.143100 -0.330366 0.040412 -0.137811 -0.291303 -0.038091 0.101893 -0.330514 -0.619274 0.119053 0.634571 -0.233317 
fat -0.036803 0.247894 0.005898 -0.049710 0.115244 -0.288828 -0.311005 -0.226054 0.116917 -0.312934 0.094134 -0.136144 -0.262770 -0.042500 0.050526 -0.309007 -0.611517 0.104643 0.623170 -0.227992 
except -0.036578 0.219134 -0.000849 -0.092181 0.111445 -0.283337 -0.327695 -0.244669 0.119952 -0.323498 0.103345 -0.123244 -0.259070 -0.002750 0.057958 -0.307207 -0.616703 0.105778 0.602961 -0.222310 
phone 0.001145 0.196473 -0.019559 -0.048245 0.051834 -0.264828 -0.293936 -0.220483 0.105525 -0.346609 0.041109 -0.121971 -0.300828 -0.020103 0.110441 -0.294086 -0.610853 0.083834 0.628252 -0.201760 
